{"learner":{"attributes":{"scikit_learn":"{\"_estimator_type\": \"classifier\"}"},"feature_names":["air_temperature_k","process_temperature_k","rotational_speed_rpm","torque_nm","tool_wear_min","twf","hdf","pwf","osf","rnf"],"feature_types":["float","float","int","float","int","int","int","int","int","int"],"gradient_booster":{"model":{"gbtree_model_param":{"num_parallel_tree":"1","num_trees":"200"},"iteration_indptr":[0,1,2,3,4,5,6,7,8,9,10,11,12,13,14,15,16,17,18,19,20,21,22,23,24,25,26,27,28,29,30,31,32,33,34,35,36,37,38,39,40,41,42,43,44,45,46,47,48,49,50,51,52,53,54,55,56,57,58,59,60,61,62,63,64,65,66,67,68,69,70,71,72,73,74,75,76,77,78,79,80,81,82,83,84,85,86,87,88,89,90,91,92,93,94,95,96,97,98,99,100,101,102,103,104,105,106,107,108,109,110,111,112,113,114,115,116,117,118,119,120,121,122,123,124,125,126,127,128,129,130,131,132,133,134,135,136,137,138,139,140,141,142,143,144,145,146,147,148,149,150,151,152,153,154,155,156,157,158,159,160,161,162,163,164,165,166,167,168,169,170,171,172,173,174,175,176,177,178,179,180,181,182,183,184,185,186,187,188,189,190,191,192,193,194,195,196,197,198,199,200],"tree_info":[0,0,0,0,0,0,0,0,0,0,0,0,0,0,0,0,0,0,0,0,0,0,0,0,0,0,0,0,0,0,0,0,0,0,0,0,0,0,0,0,0,0,0,0,0,0,0,0,0,0,0,0,0,0,0,0,0,0,0,0,0,0,0,0,0,0,0,0,0,0,0,0,0,0,0,0,0,0,0,0,0,0,0,0,0,0,0,0,0,0,0,0,0,0,0,0,0,0,0,0,0,0,0,0,0,0,0,0,0,0,0,0,0,0,0,0,0,0,0,0,0,0,0,0,0,0,0,0,0,0,0,0,0,0,0,0,0,0,0,0,0,0,0,0,0,0,0,0,0,0,0,0,0,0,0,0,0,0,0,0,0,0,0,0,0,0,0,0,0,0,0,0,0,0,0,0,0,0,0,0,0,0,0,0,0,0,0,0,0,0,0,0,0,0,0,0,0,0,0,0],"trees":[{"base_weights":[-8.552782E-1,-9.487653E-1,3.323438E-1,-1.0321398E0,3.27208E-1,-1.0717083E0,2.873463E-1,2.0723796E-1,-5.5095643E-2],"categories":[],"categories_nodes":[],"categories_segments":[],"categories_sizes":[],"default_left":[0,0,0,0,0,0,0,0,0],"id":0,"left_children":[1,3,-1,5,-1,7,-1,-1,-1],"loss_changes":[5.261987E2,4.6468646E2,0E0,2.0085022E2,0E0,1.1839685E2,0E0,0E0,0E0],"parents":[2147483647,0,0,1,1,3,3,5,5],"right_children":[2,4,-1,6,-1,8,-1,-1,-1],"split_conditions":[1E0,1E0,3.323438E-1,1E0,3.27208E-1,1.38E1,2.873463E-1,2.0723796E-1,-5.5095643E-2],"split_indices":[8,6,0,5,0,3,0,0,0],"split_type":[0,0,0,0,0,0,0,0,0],"sum_hessian":[7.402689E2,7.320205E2,8.2484455E0,7.248176E2,7.202868E0,7.2144855E2,3.3690834E0,3.3690834E0,7.1807947E2],"tree_param":{"num_deleted":"0","num_feature":"10","num_nodes":"9","size_leaf_vector":"1"}},{"base_weights":[-8.4324276E-1,-9.41292E-1,3.1338695E-1,-1.0284376E0,2.551529E-1,-1.1009433E0,2.4867657E-1,-5.6821387E-2,2.2783044E-1],"categories":[],"categories_nodes":[],"categories_segments":[],"categories_sizes":[],"default_left":[0,0,0,0,0,0,0,0,0],"id":1,"left_children":[1,3,-1,5,-1,7,-1,-1,-1],"loss_changes":[5.1028235E2,3.8157288E2,0E0,3.1232812E2,0E0,1.4520947E2,0E0,0E0,0E0],"parents":[2147483647,0,0,1,1,3,3,5,5],"right_children":[2,4,-1,6,-1,8,-1,-1,-1],"split_conditions":[1E0,1E0,3.1338695E-1,1E0,2.551529E-1,1E0,2.4867657E-1,-5.6821387E-2,2.2783044E-1],"split_indices":[7,6,0,8,0,5,0,0,0],"split_type":[0,0,0,0,0,0,0,0,0],"sum_hessian":[7.2241266E2,7.13443E2,8.969629E0,7.0412103E2,9.321954E0,6.965234E2,7.597658E0,6.9297614E2,3.5472472E0],"tree_param":{"num_deleted":"0","num_feature":"10","num_nodes":"9","size_leaf_vector":"1"}},{"base_weights":[-8.3541286E-1,-9.271784E-1,2.4161522E-1,-1.0136085E0,2.1019267E-1,-1.0896728E0,2.0742226E-1,-5.6542803E-2,1.9923481E-1],"categories":[],"categories_nodes":[],"categories_segments":[],"categories_sizes":[],"default_left":[0,0,0,0,0,0,0,0,0],"id":2,"left_children":[1,3,-1,5,-1,7,-1,-1,-1],"loss_changes":[3.661483E2,3.0810364E2,0E0,2.693991E2,0E0,1.4360095E2,0E0,0E0,0E0],"parents":[2147483647,0,0,1,1,3,3,5,5],"right_children":[2,4,-1,6,-1,8,-1,-1,-1],"split_conditions":[1E0,1E0,2.4161522E-1,1E0,2.1019267E-1,1E0,2.0742226E-1,-5.6542803E-2,1.9923481E-1],"split_indices":[7,6,0,8,0,5,0,0,0],"split_type":[0,0,0,0,0,0,0,0,0],"sum_hessian":[6.9438007E2,6.8413965E2,1.0240436E1,6.7359564E2,1.0543982E1,6.645916E2,9.004038E0,6.6001215E2,4.5794797E0],"tree_param":{"num_deleted":"0","num_feature":"10","num_nodes":"9","size_leaf_vector":"1"}},{"base_weights":[-8.37667E-1,-9.238652E-1,2.016677E-1,-1.0103484E0,1.804373E-1,-1.0836045E0,1.7789064E-1,-5.598851E-2,1.693012E-1],"categories":[],"categories_nodes":[],"categories_segments":[],"categories_sizes":[],"default_left":[0,0,0,0,0,0,0,0,0],"id":3,"left_children":[1,3,-1,5,-1,7,-1,-1,-1],"loss_changes":[2.8575195E2,2.6268665E2,0E0,2.2111877E2,0E0,1.07206055E2,0E0,0E0,0E0],"parents":[2147483647,0,0,1,1,3,3,5,5],"right_children":[2,4,-1,6,-1,8,-1,-1,-1],"split_conditions":[1E0,1E0,2.016677E-1,1E0,1.804373E-1,1E0,1.7789064E-1,-5.598851E-2,1.693012E-1],"split_indices":[7,6,0,8,0,5,0,0,0],"split_type":[0,0,0,0,0,0,0,0,0],"sum_hessian":[6.706924E2,6.5982635E2,1.0866038E1,6.482349E2,1.1591374E1,6.387545E2,9.480417E0,6.3437103E2,4.383497E0],"tree_param":{"num_deleted":"0","num_feature":"10","num_nodes":"9","size_leaf_vector":"1"}},{"base_weights":[-8.108337E-1,-9.0851057E-1,1.6058563E-1,-1.0004513E0,1.7556995E-1,-1.0720106E0,1.568645E-1,-5.5488653E-2,-2.4633812E-2],"categories":[],"categories_nodes":[],"categories_segments":[],"categories_sizes":[],"default_left":[0,0,0,0,0,0,0,0,0],"id":4,"left_children":[1,3,-1,5,-1,7,-1,-1,-1],"loss_changes":[2.5884976E2,2.6225403E2,0E0,1.8827881E2,0E0,1.2899841E1,0E0,0E0,0E0],"parents":[2147483647,0,0,1,1,3,3,5,5],"right_children":[2,4,-1,6,-1,8,-1,-1,-1],"split_conditions":[1E0,1E0,1.6058563E-1,1E0,1.7556995E-1,2.03E2,1.568645E-1,-5.5488653E-2,-2.4633812E-2],"split_indices":[6,7,0,8,0,4,0,0,0],"split_type":[0,0,0,0,0,0,0,0,0],"sum_hessian":[6.503758E2,6.357133E2,1.466247E1,6.235169E2,1.2196435E1,6.1364526E2,9.87164E0,5.752345E2,3.841076E1],"tree_param":{"num_deleted":"0","num_feature":"10","num_nodes":"9","size_leaf_vector":"1"}},{"base_weights":[-7.887987E-1,-8.795059E-1,1.5432717E-1,-9.2229974E-1,1.578021E-1,-2.9396422E-2,-1.0859927E0,-3.3024307E-2,6.9334686E-2,-5.4730367E-2,-1.4510435E-2],"categories":[],"categories_nodes":[],"categories_segments":[],"categories_sizes":[],"default_left":[0,0,0,0,0,0,0,0,0,0,0],"id":5,"left_children":[1,3,-1,5,-1,7,9,-1,-1,-1,-1],"loss_changes":[2.2472916E2,1.0962262E2,0E0,8.944922E1,0E0,8.65962E1,3.2289429E0,0E0,0E0,0E0,0E0],"parents":[2147483647,0,0,1,1,3,3,5,5,6,6],"right_children":[2,4,-1,6,-1,8,10,-1,-1,-1,-1],"split_conditions":[1E0,1E0,1.5432717E-1,1.382E3,1.578021E-1,3.016E2,2.22E2,-3.3024307E-2,6.9334686E-2,-5.4730367E-2,-1.4510435E-2],"split_indices":[7,5,0,2,0,0,4,0,0,0,0],"split_type":[0,0,0,0,0,0,0,0,0,0,0],"sum_hessian":[6.305819E2,6.169153E2,1.3666613E1,6.112054E2,5.7099E0,9.4873604E1,5.163318E2,6.599575E1,2.8877848E1,5.104306E2,5.9011765E0],"tree_param":{"num_deleted":"0","num_feature":"10","num_nodes":"11","size_leaf_vector":"1"}},{"base_weights":[-7.8093284E-1,-8.785009E-1,1.3784592E-1,-9.7404796E-1,1.4048359E-1,-1.0649273E0,3.1487394E-2,-5.477565E-2,-1.8971736E-2,-1.4675482E-2,1.1062012E-1],"categories":[],"categories_nodes":[],"categories_segments":[],"categories_sizes":[],"default_left":[0,0,0,0,0,0,0,0,0,0,0],"id":6,"left_children":[1,3,-1,5,-1,7,9,-1,-1,-1,-1],"loss_changes":[2.1151123E2,2.1073361E2,0E0,5.267682E1,0E0,1.0661987E1,3.5182384E1,0E0,0E0,0E0,0E0],"parents":[2147483647,0,0,1,1,3,3,5,5,6,6],"right_children":[2,4,-1,6,-1,8,10,-1,-1,-1,-1],"split_conditions":[1E0,1E0,1.3784592E-1,2.02E2,1.4048359E-1,5.67E1,5.24E1,-5.477565E-2,-1.8971736E-2,-1.4675482E-2,1.1062012E-1],"split_indices":[6,7,0,4,0,3,3,0,0,0,0],"split_type":[0,0,0,0,0,0,0,0,0,0,0],"sum_hessian":[6.047379E2,5.892394E2,1.5498552E1,5.750771E2,1.4162249E1,5.273561E2,4.7721035E1,5.042587E2,2.3097366E1,4.2285175E1,5.435861E0],"tree_param":{"num_deleted":"0","num_feature":"10","num_nodes":"11","size_leaf_vector":"1"}},{"base_weights":[-7.7964145E-1,-8.72267E-1,1.2931286E-1,-9.490289E-1,1.383337E-1,-9.928585E-1,1.430476E-1,-2.1004084E-2,-5.463463E-2],"categories":[],"categories_nodes":[],"categories_segments":[],"categories_sizes":[],"default_left":[0,0,0,0,0,0,0,0,0],"id":7,"left_children":[1,3,-1,5,-1,7,-1,-1,-1],"loss_changes":[1.8521857E2,1.6237146E2,0E0,9.649112E1,0E0,3.1287598E1,0E0,0E0,0E0],"parents":[2147483647,0,0,1,1,3,3,5,5],"right_children":[2,4,-1,6,-1,8,-1,-1,-1],"split_conditions":[1E0,1E0,1.2931286E-1,1E0,1.383337E-1,1.382E3,1.430476E-1,-2.1004084E-2,-5.463463E-2],"split_indices":[7,8,0,5,0,2,0,0,0],"split_type":[0,0,0,0,0,0,0,0,0],"sum_hessian":[5.858546E2,5.708854E2,1.4969243E1,5.598155E2,1.106986E1,5.541797E2,5.635824E0,8.3028534E1,4.7115112E2],"tree_param":{"num_deleted":"0","num_feature":"10","num_nodes":"9","size_leaf_vector":"1"}},{"base_weights":[-7.715887E-1,-8.735043E-1,1.2507209E-1,-9.652813E-1,1.266709E-1,-1.00693E0,1.2918441E-1,-5.1585343E-2,7.500105E-2],"categories":[],"categories_nodes":[],"categories_segments":[],"categories_sizes":[],"default_left":[0,0,0,0,0,0,0,0,0],"id":8,"left_children":[1,3,-1,5,-1,7,-1,-1,-1],"loss_changes":[1.9127512E2,1.7456973E2,0E0,8.194159E1,0E0,3.454657E1,0E0,0E0,0E0],"parents":[2147483647,0,0,1,1,3,3,5,5],"right_children":[2,4,-1,6,-1,8,-1,-1,-1],"split_conditions":[1E0,1E0,1.2507209E-1,1E0,1.266709E-1,2.45E3,1.2918441E-1,-5.1585343E-2,7.500105E-2],"split_indices":[8,6,0,5,0,2,0,0,0],"split_type":[0,0,0,0,0,0,0,0,0],"sum_hessian":[5.658627E2,5.494859E2,1.6376774E1,5.3576984E2,1.3716105E1,5.3026324E2,5.506601E0,5.256565E2,4.6067185E0],"tree_param":{"num_deleted":"0","num_feature":"10","num_nodes":"9","size_leaf_vector":"1"}},{"base_weights":[-7.513588E-1,-8.575396E-1,1.1779287E-1,-9.624271E-1,1.18679605E-1,-1.0427599E0,1.1782539E-1,-5.4186918E-2,1.17869355E-1],"categories":[],"categories_nodes":[],"categories_segments":[],"categories_sizes":[],"default_left":[0,0,0,0,0,0,0,0,0],"id":9,"left_children":[1,3,-1,5,-1,7,-1,-1,-1],"loss_changes":[1.8191379E2,1.8121591E2,0E0,1.3898807E2,0E0,7.231494E1,0E0,0E0,0E0],"parents":[2147483647,0,0,1,1,3,3,5,5],"right_children":[2,4,-1,6,-1,8,-1,-1,-1],"split_conditions":[1E0,1E0,1.1779287E-1,1E0,1.18679605E-1,1E0,1.1782539E-1,-5.4186918E-2,1.17869355E-1],"split_indices":[6,7,0,8,0,5,0,0,0],"split_type":[0,0,0,0,0,0,0,0,0],"sum_hessian":[5.442531E2,5.2696936E2,1.7283752E1,5.1108105E2,1.5888331E1,4.9967258E2,1.140846E1,4.9439542E2,5.2771735E0],"tree_param":{"num_deleted":"0","num_feature":"10","num_nodes":"9","size_leaf_vector":"1"}},{"base_weights":[-7.3758966E-1,-8.389346E-1,1.1215154E-1,-9.279507E-1,1.1017759E-1,-9.7623754E-1,1.1310064E-1,-1.9217504E-2,-5.380676E-2],"categories":[],"categories_nodes":[],"categories_segments":[],"categories_sizes":[],"default_left":[0,0,0,0,0,0,0,0,0],"id":10,"left_children":[1,3,-1,5,-1,7,-1,-1,-1],"loss_changes":[1.5929422E2,1.3873361E2,0E0,7.784787E1,0E0,2.8230164E1,0E0,0E0,0E0],"parents":[2147483647,0,0,1,1,3,3,5,5],"right_children":[2,4,-1,6,-1,8,-1,-1,-1],"split_conditions":[1E0,1E0,1.1215154E-1,1E0,1.1017759E-1,1.378E3,1.1310064E-1,-1.9217504E-2,-5.380676E-2],"split_indices":[7,8,0,5,0,2,0,0,0],"split_type":[0,0,0,0,0,0,0,0,0],"sum_hessian":[5.2011115E2,5.0370312E2,1.6408018E1,4.9006012E2,1.3643015E1,4.8343625E2,6.6238637E0,7.0510895E1,4.1292535E2],"tree_param":{"num_deleted":"0","num_feature":"10","num_nodes":"9","size_leaf_vector":"1"}},{"base_weights":[-7.340251E-1,-8.455838E-1,1.1106157E-1,-9.5348614E-1,1.05778694E-1,-1.0379237E0,1.0327887E-1,-5.366015E-2,9.9887334E-2],"categories":[],"categories_nodes":[],"categories_segments":[],"categories_sizes":[],"default_left":[0,0,0,0,0,0,0,0,0],"id":11,"left_children":[1,3,-1,5,-1,7,-1,-1,-1],"loss_changes":[1.6774564E2,1.5715244E2,0E0,1.2174121E2,0E0,5.109247E1,0E0,0E0,0E0],"parents":[2147483647,0,0,1,1,3,3,5,5],"right_children":[2,4,-1,6,-1,8,-1,-1,-1],"split_conditions":[1E0,1E0,1.1106157E-1,1E0,1.05778694E-1,1E0,1.0327887E-1,-5.366015E-2,9.9887334E-2],"split_indices":[6,7,0,8,0,5,0,0,0],"split_type":[0,0,0,0,0,0,0,0,0],"sum_hessian":[5.0210938E2,4.845325E2,1.757686E1,4.6815143E2,1.6381075E1,4.5605267E2,1.20987425E1,4.5145258E2,4.6001062E0],"tree_param":{"num_deleted":"0","num_feature":"10","num_nodes":"9","size_leaf_vector":"1"}},{"base_weights":[-7.266933E-1,-8.3771044E-1,1.0430191E-1,-9.5118773E-1,9.921467E-2,-1.0310439E0,9.782576E-2,-5.3189673E-2,-1.9752039E-2],"categories":[],"categories_nodes":[],"categories_segments":[],"categories_sizes":[],"default_left":[0,0,0,0,0,0,0,0,0],"id":12,"left_children":[1,3,-1,5,-1,7,-1,-1,-1],"loss_changes":[1.5406396E2,1.5238977E2,0E0,1.0708331E2,0E0,8.766205E0,0E0,0E0,0E0],"parents":[2147483647,0,0,1,1,3,3,5,5],"right_children":[2,4,-1,6,-1,8,-1,-1,-1],"split_conditions":[1E0,1E0,1.0430191E-1,1E0,9.921467E-2,2.08E2,9.782576E-2,-5.3189673E-2,-1.9752039E-2],"split_indices":[6,7,0,8,0,4,0,0,0],"split_type":[0,0,0,0,0,0,0,0,0],"sum_hessian":[4.8678503E2,4.689769E2,1.7808126E1,4.514849E2,1.7491993E1,4.4004507E2,1.1439838E1,4.1785587E2,2.218919E1],"tree_param":{"num_deleted":"0","num_feature":"10","num_nodes":"9","size_leaf_vector":"1"}},{"base_weights":[-7.0299965E-1,-8.135377E-1,9.8400116E-2,-9.2371637E-1,9.427659E-2,-1.0073581E0,9.332959E-2,-5.2925844E-2,1.0070641E-1],"categories":[],"categories_nodes":[],"categories_segments":[],"categories_sizes":[],"default_left":[0,0,0,0,0,0,0,0,0],"id":13,"left_children":[1,3,-1,5,-1,7,-1,-1,-1],"loss_changes":[1.4001987E2,1.3583014E2,0E0,1.0314343E2,0E0,6.7348724E1,0E0,0E0,0E0],"parents":[2147483647,0,0,1,1,3,3,5,5],"right_children":[2,4,-1,6,-1,8,-1,-1,-1],"split_conditions":[1E0,1E0,9.8400116E-2,1E0,9.427659E-2,1E0,9.332959E-2,-5.2925844E-2,1.0070641E-1],"split_indices":[6,7,0,8,0,5,0,0,0],"split_type":[0,0,0,0,0,0,0,0,0],"sum_hessian":[4.678231E2,4.4989966E2,1.7923456E1,4.3288657E2,1.7013084E1,4.2090848E2,1.1978087E1,4.145393E2,6.369168E0],"tree_param":{"num_deleted":"0","num_feature":"10","num_nodes":"9","size_leaf_vector":"1"}},{"base_weights":[-7.174522E-1,-8.2020116E-1,9.030061E-2,-9.03174E-1,8.944938E-2,-9.5337605E-1,9.6006624E-2,-5.2655686E-2,-3.0558301E-2],"categories":[],"categories_nodes":[],"categories_segments":[],"categories_sizes":[],"default_left":[0,0,0,0,0,0,0,0,0],"id":14,"left_children":[1,3,-1,5,-1,7,-1,-1,-1],"loss_changes":[1.1837889E2,9.5551025E1,0E0,6.1528168E1,0E0,1.3503815E1,0E0,0E0,0E0],"parents":[2147483647,0,0,1,1,3,3,5,5],"right_children":[2,4,-1,6,-1,8,-1,-1,-1],"split_conditions":[1E0,1E0,9.030061E-2,1E0,8.944938E-2,3.019E2,9.6006624E-2,-5.2655686E-2,-3.0558301E-2],"split_indices":[7,8,0,5,0,0,0,0,0],"split_type":[0,0,0,0,0,0,0,0,0],"sum_hessian":[4.49849E2,4.3289752E2,1.6951494E1,4.2018924E2,1.2708273E1,4.1349902E2,6.6902285E0,3.18573E2,9.4926E1],"tree_param":{"num_deleted":"0","num_feature":"10","num_nodes":"9","size_leaf_vector":"1"}},{"base_weights":[-6.702388E-1,-7.8941405E-1,9.544101E-2,-9.006545E-1,8.676814E-2,-9.577237E-1,9.1769986E-2,-5.1057346E-2,-1.3979747E-2],"categories":[],"categories_nodes":[],"categories_segments":[],"categories_sizes":[],"default_left":[0,0,0,0,0,0,0,0,0],"id":15,"left_children":[1,3,-1,5,-1,7,-1,-1,-1],"loss_changes":[1.346821E2,1.18078705E2,0E0,6.3904663E1,0E0,1.6510986E1,0E0,0E0,0E0],"parents":[2147483647,0,0,1,1,3,3,5,5],"right_children":[2,4,-1,6,-1,8,-1,-1,-1],"split_conditions":[1E0,1E0,9.544101E-2,1E0,8.676814E-2,2.02E2,9.1769986E-2,-5.1057346E-2,-1.3979747E-2],"split_indices":[6,7,0,5,0,4,0,0,0],"split_type":[0,0,0,0,0,0,0,0,0],"sum_hessian":[4.3228745E2,4.138575E2,1.8429953E1,3.9700876E2,1.6848738E1,3.8953375E2,7.4750137E0,3.5575525E2,3.3778507E1],"tree_param":{"num_deleted":"0","num_feature":"10","num_nodes":"9","size_leaf_vector":"1"}},{"base_weights":[-6.969296E-1,-7.9447013E-1,8.4565245E-2,-8.741593E-1,8.414704E-2,-9.194638E-1,8.578832E-2,-1.3591784E-2,-5.197379E-2],"categories":[],"categories_nodes":[],"categories_segments":[],"categories_sizes":[],"default_left":[0,0,0,0,0,0,0,0,0],"id":16,"left_children":[1,3,-1,5,-1,7,-1,-1,-1],"loss_changes":[9.782883E1,8.016716E1,0E0,4.6969025E1,0E0,2.9318512E1,0E0,0E0,0E0],"parents":[2147483647,0,0,1,1,3,3,5,5],"right_children":[2,4,-1,6,-1,8,-1,-1,-1],"split_conditions":[1E0,1E0,8.4565245E-2,1E0,8.414704E-2,1.378E3,8.578832E-2,-1.3591784E-2,-5.197379E-2],"split_indices":[8,7,0,5,0,2,0,0,0],"split_type":[0,0,0,0,0,0,0,0,0],"sum_hessian":[4.131888E2,3.9761664E2,1.5572164E1,3.8585233E2,1.1764297E1,3.7985272E2,5.9996233E0,5.9896202E1,3.199565E2],"tree_param":{"num_deleted":"0","num_feature":"10","num_nodes":"9","size_leaf_vector":"1"}},{"base_weights":[-6.887264E-1,-8.046894E-1,9.094683E-2,-9.084581E-1,8.250356E-2,-9.952706E-1,8.015906E-2,-5.24816E-2,8.306684E-2],"categories":[],"categories_nodes":[],"categories_segments":[],"categories_sizes":[],"default_left":[0,0,0,0,0,0,0,0,0],"id":17,"left_children":[1,3,-1,5,-1,7,-1,-1,-1],"loss_changes":[1.1701097E2,9.8417404E1,0E0,8.133179E1,0E0,5.2880524E1,0E0,0E0,0E0],"parents":[2147483647,0,0,1,1,3,3,5,5],"right_children":[2,4,-1,6,-1,8,-1,-1,-1],"split_conditions":[1E0,1E0,9.094683E-2,1E0,8.250356E-2,1E0,8.015906E-2,-5.24816E-2,8.306684E-2],"split_indices":[6,8,0,7,0,5,0,0,0],"split_type":[0,0,0,0,0,0,0,0,0],"sum_hessian":[3.963482E2,3.794789E2,1.6869308E1,3.6469238E2,1.4786511E1,3.5309183E2,1.1600562E1,3.4660428E2,6.487554E0],"tree_param":{"num_deleted":"0","num_feature":"10","num_nodes":"9","size_leaf_vector":"1"}},{"base_weights":[-6.5822697E-1,-7.666061E-1,8.7367035E-2,-8.756277E-1,7.985675E-2,-9.7448814E-1,7.905675E-2,-5.184521E-2,8.125078E-2],"categories":[],"categories_nodes":[],"categories_segments":[],"categories_sizes":[],"default_left":[0,0,0,0,0,0,0,0,0],"id":18,"left_children":[1,3,-1,5,-1,7,-1,-1,-1],"loss_changes":[1.02647705E2,9.739749E1,0E0,8.818591E1,0E0,5.7428528E1,0E0,0E0,0E0],"parents":[2147483647,0,0,1,1,3,3,5,5],"right_children":[2,4,-1,6,-1,8,-1,-1,-1],"split_conditions":[1E0,1E0,8.7367035E-2,1E0,7.985675E-2,1E0,7.905675E-2,-5.184521E-2,8.125078E-2],"split_indices":[6,8,0,7,0,5,0,0,0],"split_type":[0,0,0,0,0,0,0,0,0],"sum_hessian":[3.8758087E2,3.7152377E2,1.6057108E1,3.5574545E2,1.5778312E1,3.42564E2,1.3181469E1,3.3511865E2,7.4453416E0],"tree_param":{"num_deleted":"0","num_feature":"10","num_nodes":"9","size_leaf_vector":"1"}},{"base_weights":[-6.4702064E-1,-7.597397E-1,8.4170096E-2,-8.728937E-1,7.719974E-2,-9.801318E-1,7.638971E-2,-5.168877E-2,-1.6579323E-2],"categories":[],"categories_nodes":[],"categories_segments":[],"categories_sizes":[],"default_left":[0,0,0,0,0,0,0,0,0],"id":19,"left_children":[1,3,-1,5,-1,7,-1,-1,-1],"loss_changes":[9.862962E1,9.367735E1,0E0,8.857785E1,0E0,1.0942993E1,0E0,0E0,0E0],"parents":[2147483647,0,0,1,1,3,3,5,5],"right_children":[2,4,-1,6,-1,8,-1,-1,-1],"split_conditions":[1E0,1E0,8.4170096E-2,1E0,7.719974E-2,2.03E2,7.638971E-2,-5.168877E-2,-1.6579323E-2],"split_indices":[6,8,0,7,0,4,0,0,0],"split_type":[0,0,0,0,0,0,0,0,0],"sum_hessian":[3.696014E2,3.5319202E2,1.6409376E1,3.372483E2,1.5943741E1,3.2339407E2,1.3854204E1,2.981398E2,2.5254293E1],"tree_param":{"num_deleted":"0","num_feature":"10","num_nodes":"9","size_leaf_vector":"1"}},{"base_weights":[-6.3433695E-1,-7.374943E-1,7.393011E-2,-8.3403957E-1,7.525311E-2,-8.907897E-1,7.81738E-2,-1.3707928E-2,-5.1342078E-2],"categories":[],"categories_nodes":[],"categories_segments":[],"categories_sizes":[],"default_left":[0,0,0,0,0,0,0,0,0],"id":20,"left_children":[1,3,-1,5,-1,7,-1,-1,-1],"loss_changes":[7.854074E1,7.475116E1,0E0,4.576062E1,0E0,2.6496445E1,0E0,0E0,0E0],"parents":[2147483647,0,0,1,1,3,3,5,5],"right_children":[2,4,-1,6,-1,8,-1,-1,-1],"split_conditions":[1E0,1E0,7.393011E-2,1E0,7.525311E-2,1.382E3,7.81738E-2,-1.3707928E-2,-5.1342078E-2],"split_indices":[7,8,0,5,0,2,0,0,0],"split_type":[0,0,0,0,0,0,0,0,0],"sum_hessian":[3.543332E2,3.3845996E2,1.587324E1,3.2509235E2,1.3367609E1,3.1818915E2,6.9032087E0,5.8059513E1,2.6012964E2],"tree_param":{"num_deleted":"0","num_feature":"10","num_nodes":"9","size_leaf_vector":"1"}},{"base_weights":[-6.7720175E-1,-7.817422E-1,8.0137394E-2,-8.8741297E-1,7.082418E-2,-9.7697634E-1,7.227152E-2,-5.143499E-2,7.3441684E-2],"categories":[],"categories_nodes":[],"categories_segments":[],"categories_sizes":[],"default_left":[0,0,0,0,0,0,0,0,0],"id":21,"left_children":[1,3,-1,5,-1,7,-1,-1,-1],"loss_changes":[8.195987E1,7.66201E1,0E0,6.621869E1,0E0,3.9374268E1,0E0,0E0,0E0],"parents":[2147483647,0,0,1,1,3,3,5,5],"right_children":[2,4,-1,6,-1,8,-1,-1,-1],"split_conditions":[1E0,1E0,8.0137394E-2,1E0,7.082418E-2,1E0,7.227152E-2,-5.143499E-2,7.3441684E-2],"split_indices":[6,7,0,8,0,5,0,0,0],"split_type":[0,0,0,0,0,0,0,0,0],"sum_hessian":[3.376111E2,3.2343796E2,1.4173182E1,3.0917206E2,1.42658825E1,2.9830078E2,1.0871264E1,2.9269043E2,5.6103544E0],"tree_param":{"num_deleted":"0","num_feature":"10","num_nodes":"9","size_leaf_vector":"1"}},{"base_weights":[-6.5117806E-1,-7.645127E-1,7.8201786E-2,-8.7352645E-1,6.984416E-2,-9.665238E-1,7.1023606E-2,-5.1415473E-2,7.284012E-2],"categories":[],"categories_nodes":[],"categories_segments":[],"categories_sizes":[],"default_left":[0,0,0,0,0,0,0,0,0],"id":22,"left_children":[1,3,-1,5,-1,7,-1,-1,-1],"loss_changes":[8.295906E1,7.4379074E1,0E0,6.456293E1,0E0,4.4208313E1,0E0,0E0,0E0],"parents":[2147483647,0,0,1,1,3,3,5,5],"right_children":[2,4,-1,6,-1,8,-1,-1,-1],"split_conditions":[1E0,1E0,7.8201786E-2,1E0,6.984416E-2,1E0,7.1023606E-2,-5.1415473E-2,7.284012E-2],"split_indices":[6,7,0,8,0,5,0,0,0],"split_type":[0,0,0,0,0,0,0,0,0],"sum_hessian":[3.2467203E2,3.0949268E2,1.5179361E1,2.9519962E2,1.4293052E1,2.8425476E2,1.094485E1,2.7774887E2,6.505879E0],"tree_param":{"num_deleted":"0","num_feature":"10","num_nodes":"9","size_leaf_vector":"1"}},{"base_weights":[-6.590095E-1,-7.6540613E-1,7.5588256E-2,-8.6781305E-1,6.8734504E-2,-9.2272097E-1,7.0271105E-2,-4.914872E-2,3.5700656E-2],"categories":[],"categories_nodes":[],"categories_segments":[],"categories_sizes":[],"default_left":[0,0,0,0,0,0,0,0,0],"id":23,"left_children":[1,3,-1,5,-1,7,-1,-1,-1],"loss_changes":[7.377237E1,6.7023605E1,0E0,3.715367E1,0E0,2.8423676E1,0E0,0E0,0E0],"parents":[2147483647,0,0,1,1,3,3,5,5],"right_children":[2,4,-1,6,-1,8,-1,-1,-1],"split_conditions":[1E0,1E0,7.5588256E-2,1E0,6.8734504E-2,6.15E1,7.0271105E-2,-4.914872E-2,3.5700656E-2],"split_indices":[6,8,0,5,0,3,0,0,0],"split_type":[0,0,0,0,0,0,0,0,0],"sum_hessian":[3.1340198E2,2.99376E2,1.402597E1,2.8627194E2,1.3104062E1,2.8010046E2,6.1714754E0,2.7054044E2,9.560035E0],"tree_param":{"num_deleted":"0","num_feature":"10","num_nodes":"9","size_leaf_vector":"1"}},{"base_weights":[-6.472202E-1,-7.5232303E-1,7.326444E-2,-8.6443824E-1,6.771143E-2,-9.5270365E-1,6.6556215E-2,-5.088513E-2,6.8902396E-2],"categories":[],"categories_nodes":[],"categories_segments":[],"categories_sizes":[],"default_left":[0,0,0,0,0,0,0,0,0],"id":24,"left_children":[1,3,-1,5,-1,7,-1,-1,-1],"loss_changes":[6.753439E1,6.864201E1,0E0,5.3951843E1,0E0,4.1084213E1,0E0,0E0,0E0],"parents":[2147483647,0,0,1,1,3,3,5,5],"right_children":[2,4,-1,6,-1,8,-1,-1,-1],"split_conditions":[1E0,1E0,7.326444E-2,1E0,6.771143E-2,1E0,6.6556215E-2,-5.088513E-2,6.8902396E-2],"split_indices":[6,7,0,8,0,5,0,0,0],"split_type":[0,0,0,0,0,0,0,0,0],"sum_hessian":[2.9820197E2,2.8468216E2,1.351981E1,2.7085626E2,1.3825906E1,2.609324E2,9.9238615E0,2.5440114E2,6.531261E0],"tree_param":{"num_deleted":"0","num_feature":"10","num_nodes":"9","size_leaf_vector":"1"}},{"base_weights":[-6.1705154E-1,-7.377432E-1,7.18546E-2,-8.435614E-1,6.592351E-2,-9.052007E-1,6.696399E-2,-4.9301986E-2,-1.8353062E-2],"categories":[],"categories_nodes":[],"categories_segments":[],"categories_sizes":[],"default_left":[0,0,0,0,0,0,0,0,0],"id":25,"left_children":[1,3,-1,5,-1,7,-1,-1,-1],"loss_changes":[7.291477E1,6.081938E1,0E0,3.640866E1,0E0,1.0731247E1,0E0,0E0,0E0],"parents":[2147483647,0,0,1,1,3,3,5,5],"right_children":[2,4,-1,6,-1,8,-1,-1,-1],"split_conditions":[1E0,1E0,7.18546E-2,1E0,6.592351E-2,1.94E2,6.696399E-2,-4.9301986E-2,-1.8353062E-2],"split_indices":[6,7,0,5,0,4,0,0,0],"split_type":[0,0,0,0,0,0,0,0,0],"sum_hessian":[2.88832E2,2.7340866E2,1.5423336E1,2.6058786E2,1.2820798E1,2.5400067E2,6.587185E0,2.2010442E2,3.389626E1],"tree_param":{"num_deleted":"0","num_feature":"10","num_nodes":"9","size_leaf_vector":"1"}},{"base_weights":[-6.1158735E-1,-7.3120713E-1,7.0234224E-2,-8.4289217E-1,6.6399455E-2,-8.955507E-1,6.476274E-1,3.3114653E-2,-4.6567194E-2,5.862049E-4,4.792073E-2],"categories":[],"categories_nodes":[],"categories_segments":[],"categories_sizes":[],"default_left":[0,0,0,0,0,0,0,0,0,0,0],"id":26,"left_children":[1,3,-1,5,-1,7,9,-1,-1,-1,-1],"loss_changes":[6.822624E1,6.1759262E1,0E0,2.0258621E1,0E0,1.4143341E1,1.7942674E0,0E0,0E0,0E0,0E0],"parents":[2147483647,0,0,1,1,3,3,5,5,6,6],"right_children":[2,4,-1,6,-1,8,10,-1,-1,-1,-1],"split_conditions":[1E0,1E0,7.0234224E-2,6.15E1,6.6399455E-2,1.58E1,6.4E1,3.3114653E-2,-4.6567194E-2,5.862049E-4,4.792073E-2],"split_indices":[6,8,0,3,0,3,3,0,0,0,0],"split_type":[0,0,0,0,0,0,0,0,0,0,0],"sum_hessian":[2.7761954E2,2.6267322E2,1.4946322E1,2.4971979E2,1.2953426E1,2.4158403E2,8.135753E0,5.032856E0,2.3655118E2,3.011542E0,5.1242104E0],"tree_param":{"num_deleted":"0","num_feature":"10","num_nodes":"11","size_leaf_vector":"1"}},{"base_weights":[-6.1859185E-1,-7.355869E-1,6.850537E-2,-8.4889394E-1,6.454857E-2,-9.671529E-1,-3.0475685E-2,-5.0158974E-2,-1.8175099E-2,-1.8180272E-2,4.2239655E-2],"categories":[],"categories_nodes":[],"categories_segments":[],"categories_sizes":[],"default_left":[0,0,0,0,0,0,0,0,0,0,0],"id":27,"left_children":[1,3,-1,5,-1,7,9,-1,-1,-1,-1],"loss_changes":[6.396068E1,5.9922394E1,0E0,2.3511124E1,0E0,4.2563324E0,9.562029E0,0E0,0E0,0E0,0E0],"parents":[2147483647,0,0,1,1,3,3,5,5,6,6],"right_children":[2,4,-1,6,-1,8,10,-1,-1,-1,-1],"split_conditions":[1E0,1E0,6.850537E-2,2E2,6.454857E-2,5.67E1,5.02E1,-5.0158974E-2,-1.8175099E-2,-1.8180272E-2,4.2239655E-2],"split_indices":[6,7,0,4,0,3,3,0,0,0,0],"split_type":[0,0,0,0,0,0,0,0,0,0,0],"sum_hessian":[2.6956946E2,2.5518697E2,1.4382515E1,2.42225E2,1.2961948E1,2.1148442E2,3.0740583E1,1.9894908E2,1.2535347E1,2.2689482E1,8.051102E0],"tree_param":{"num_deleted":"0","num_feature":"10","num_nodes":"11","size_leaf_vector":"1"}},{"base_weights":[-6.085128E-1,-7.206382E-1,6.6486955E-2,-8.2689637E-1,6.391057E-2,-8.8681704E-1,6.589653E-2,-4.7610026E-2,3.318195E-2],"categories":[],"categories_nodes":[],"categories_segments":[],"categories_sizes":[],"default_left":[0,0,0,0,0,0,0,0,0],"id":28,"left_children":[1,3,-1,5,-1,7,-1,-1,-1],"loss_changes":[5.6926773E1,5.2901573E1,0E0,3.1034454E1,0E0,2.3609879E1,0E0,0E0,0E0],"parents":[2147483647,0,0,1,1,3,3,5,5],"right_children":[2,4,-1,6,-1,8,-1,-1,-1],"split_conditions":[1E0,1E0,6.6486955E-2,1E0,6.391057E-2,6.15E1,6.589653E-2,-4.7610026E-2,3.318195E-2],"split_indices":[6,8,0,5,0,3,0,0,0],"split_type":[0,0,0,0,0,0,0,0,0],"sum_hessian":[2.5653107E2,2.4309645E2,1.3434614E1,2.3138255E2,1.1713899E1,2.2566463E2,5.7179317E0,2.1690355E2,8.76107E0],"tree_param":{"num_deleted":"0","num_feature":"10","num_nodes":"9","size_leaf_vector":"1"}},{"base_weights":[-5.728496E-1,-6.893234E-1,6.561956E-2,-8.0751336E-1,6.379665E-2,-9.216519E-1,6.3206635E-2,-4.992636E-2,-9.628871E-3],"categories":[],"categories_nodes":[],"categories_segments":[],"categories_sizes":[],"default_left":[0,0,0,0,0,0,0,0,0],"id":29,"left_children":[1,3,-1,5,-1,7,-1,-1,-1],"loss_changes":[5.5624374E1,5.5697227E1,0E0,5.3803864E1,0E0,1.1665787E1,0E0,0E0,0E0],"parents":[2147483647,0,0,1,1,3,3,5,5],"right_children":[2,4,-1,6,-1,8,-1,-1,-1],"split_conditions":[1E0,1E0,6.561956E-2,1E0,6.379665E-2,2.03E2,6.3206635E-2,-4.992636E-2,-9.628871E-3],"split_indices":[6,8,0,7,0,4,0,0,0],"split_type":[0,0,0,0,0,0,0,0,0],"sum_hessian":[2.4820029E2,2.343557E2,1.3844595E1,2.2161684E2,1.2738865E1,2.1057045E2,1.1046389E1,1.9015091E2,2.0419529E1],"tree_param":{"num_deleted":"0","num_feature":"10","num_nodes":"9","size_leaf_vector":"1"}},{"base_weights":[-5.876142E-1,-6.905096E-1,6.1915454E-2,-7.5192213E-1,6.505876E-2,-2.943285E-2,-9.596439E-1,-2.7967399E-2,3.5707276E-2,-4.876635E-2,-2.687184E-3],"categories":[],"categories_nodes":[],"categories_segments":[],"categories_sizes":[],"default_left":[0,0,0,0,0,0,0,0,0,0,0],"id":30,"left_children":[1,3,-1,5,-1,7,9,-1,-1,-1,-1],"loss_changes":[4.6192055E1,2.8997932E1,0E0,3.341783E1,0E0,2.0415407E1,2.4063416E0,0E0,0E0,0E0,0E0],"parents":[2147483647,0,0,1,1,3,3,5,5,6,6],"right_children":[2,4,-1,6,-1,8,10,-1,-1,-1,-1],"split_conditions":[1E0,1E0,6.1915454E-2,1.382E3,6.505876E-2,3.016E2,2.22E2,-2.7967399E-2,3.5707276E-2,-4.876635E-2,-2.687184E-3],"split_indices":[7,5,0,2,0,0,4,0,0,0,0],"split_type":[0,0,0,0,0,0,0,0,0,0,0],"sum_hessian":[2.4030927E2,2.2807831E2,1.2230968E1,2.2185985E2,6.2184534E0,4.9797596E1,1.7206226E2,2.9220915E1,2.0576681E1,1.6905884E2,3.003414E0],"tree_param":{"num_deleted":"0","num_feature":"10","num_nodes":"11","size_leaf_vector":"1"}},{"base_weights":[-5.988389E-1,-7.160982E-1,6.326566E-2,-8.252833E-1,6.0598034E-2,-9.0294737E-1,6.441154E-2,-5.043949E-2,-2.7690781E-2],"categories":[],"categories_nodes":[],"categories_segments":[],"categories_sizes":[],"default_left":[0,0,0,0,0,0,0,0,0],"id":31,"left_children":[1,3,-1,5,-1,7,-1,-1,-1],"loss_changes":[5.138968E1,4.6876297E1,0E0,3.5114502E1,0E0,6.8354187E0,0E0,0E0,0E0],"parents":[2147483647,0,0,1,1,3,3,5,5],"right_children":[2,4,-1,6,-1,8,-1,-1,-1],"split_conditions":[1E0,1E0,6.326566E-2,1E0,6.0598034E-2,4.85E1,6.441154E-2,-5.043949E-2,-2.7690781E-2],"split_indices":[6,7,0,5,0,3,0,0,0],"split_type":[0,0,0,0,0,0,0,0,0],"sum_hessian":[2.2995195E2,2.1692288E2,1.302907E1,2.058383E2,1.1084566E1,1.9909505E2,6.7432566E0,1.513289E2,4.776615E1],"tree_param":{"num_deleted":"0","num_feature":"10","num_nodes":"9","size_leaf_vector":"1"}},{"base_weights":[-5.8861536E-1,-7.1120954E-1,6.240928E-2,-8.283011E-1,6.251496E-2,-9.3285346E-1,5.946927E-2,-5.0188597E-2,6.1388135E-2],"categories":[],"categories_nodes":[],"categories_segments":[],"categories_sizes":[],"default_left":[0,0,0,0,0,0,0,0,0],"id":32,"left_children":[1,3,-1,5,-1,7,-1,-1,-1],"loss_changes":[5.0369392E1,4.84936E1,0E0,4.237039E1,0E0,2.9811829E1,0E0,0E0,0E0],"parents":[2147483647,0,0,1,1,3,3,5,5],"right_children":[2,4,-1,6,-1,8,-1,-1,-1],"split_conditions":[1E0,1E0,6.240928E-2,1E0,6.251496E-2,1E0,5.946927E-2,-5.0188597E-2,6.1388135E-2],"split_indices":[6,8,0,7,0,5,0,0,0],"split_type":[0,0,0,0,0,0,0,0,0],"sum_hessian":[2.1874173E2,2.056301E2,1.3111628E1,1.9459175E2,1.1038359E1,1.8551633E2,9.075418E0,1.80139E2,5.377321E0],"tree_param":{"num_deleted":"0","num_feature":"10","num_nodes":"9","size_leaf_vector":"1"}},{"base_weights":[-5.503922E-1,-6.555997E-1,6.145065E-2,-7.609191E-1,5.9068184E-2,-2.3146981E-1,-8.896897E-1,-4.7182392E-2,3.3783842E-2,-4.9200054E-2,-7.37691E-3],"categories":[],"categories_nodes":[],"categories_segments":[],"categories_sizes":[],"default_left":[0,0,0,0,0,0,0,0,0,0,0],"id":33,"left_children":[1,3,-1,5,-1,7,9,-1,-1,-1,-1],"loss_changes":[4.09282E1,4.0174736E1,0E0,1.2925697E1,0E0,2.5854704E1,1.0674171E1,0E0,0E0,0E0,0E0],"parents":[2147483647,0,0,1,1,3,3,5,5,6,6],"right_children":[2,4,-1,6,-1,8,10,-1,-1,-1,-1],"split_conditions":[1E0,1E0,6.145065E-2,1.382E3,5.9068184E-2,3.016E2,2.03E2,-4.7182392E-2,3.3783842E-2,-4.9200054E-2,-7.37691E-3],"split_indices":[8,7,0,2,0,0,4,0,0,0,0],"split_type":[0,0,0,0,0,0,0,0,0,0,0],"sum_hessian":[2.1332169E2,2.0200943E2,1.1312261E1,1.9160956E2,1.0399861E1,3.803275E1,1.5357681E2,2.1283428E1,1.6749321E1,1.3597185E2,1.7604965E1],"tree_param":{"num_deleted":"0","num_feature":"10","num_nodes":"11","size_leaf_vector":"1"}},{"base_weights":[-5.520823E-1,-6.703123E-1,6.0584266E-2,-7.8696865E-1,6.038441E-2,-9.025622E-1,5.808812E-2,-4.9109694E-2,-1.0069675E-2],"categories":[],"categories_nodes":[],"categories_segments":[],"categories_sizes":[],"default_left":[0,0,0,0,0,0,0,0,0],"id":34,"left_children":[1,3,-1,5,-1,7,-1,-1,-1],"loss_changes":[4.3113976E1,4.274151E1,0E0,4.164187E1,0E0,9.332031E0,0E0,0E0,0E0],"parents":[2147483647,0,0,1,1,3,3,5,5],"right_children":[2,4,-1,6,-1,8,-1,-1,-1],"split_conditions":[1E0,1E0,6.0584266E-2,1E0,6.038441E-2,2.03E2,5.808812E-2,-4.9109694E-2,-1.0069675E-2],"split_indices":[6,8,0,7,0,4,0,0,0],"split_type":[0,0,0,0,0,0,0,0,0],"sum_hessian":[2.0185667E2,1.8975673E2,1.2099943E1,1.792059E2,1.0550835E1,1.696779E2,9.527996E0,1.52013E2,1.7664902E1],"tree_param":{"num_deleted":"0","num_feature":"10","num_nodes":"9","size_leaf_vector":"1"}},{"base_weights":[-5.560393E-1,-6.6658527E-1,5.9583463E-2,-7.838106E-1,5.9444457E-2,-8.8891846E-1,5.680073E-2,-4.8669532E-2,-4.4206954E-3],"categories":[],"categories_nodes":[],"categories_segments":[],"categories_sizes":[],"default_left":[0,0,0,0,0,0,0,0,0],"id":35,"left_children":[1,3,-1,5,-1,7,-1,-1,-1],"loss_changes":[3.892361E1,4.1443962E1,0E0,3.648224E1,0E0,1.1221832E1,0E0,0E0,0E0],"parents":[2147483647,0,0,1,1,3,3,5,5],"right_children":[2,4,-1,6,-1,8,-1,-1,-1],"split_conditions":[1E0,1E0,5.9583463E-2,1E0,5.9444457E-2,2.05E2,5.680073E-2,-4.8669532E-2,-4.4206954E-3],"split_indices":[8,6,0,7,0,4,0,0,0],"split_type":[0,0,0,0,0,0,0,0,0],"sum_hessian":[1.963543E2,1.8525514E2,1.1099153E1,1.7478983E2,1.0465319E1,1.6622614E2,8.56368E0,1.5016428E2,1.6061857E1],"tree_param":{"num_deleted":"0","num_feature":"10","num_nodes":"9","size_leaf_vector":"1"}},{"base_weights":[-5.464181E-1,-6.6818357E-1,5.890124E-2,-7.837681E-1,5.626685E-2,-8.9562434E-1,5.8197655E-2,-4.8684865E-2,6.017328E-2],"categories":[],"categories_nodes":[],"categories_segments":[],"categories_sizes":[],"default_left":[0,0,0,0,0,0,0,0,0],"id":36,"left_children":[1,3,-1,5,-1,7,-1,-1,-1],"loss_changes":[4.0178905E1,3.733934E1,0E0,3.7165924E1,0E0,2.6961441E1,0E0,0E0,0E0],"parents":[2147483647,0,0,1,1,3,3,5,5],"right_children":[2,4,-1,6,-1,8,-1,-1,-1],"split_conditions":[1E0,1E0,5.890124E-2,1E0,5.626685E-2,1E0,5.8197655E-2,-4.8684865E-2,6.017328E-2],"split_indices":[6,7,0,8,0,5,0,0,0],"split_type":[0,0,0,0,0,0,0,0,0],"sum_hessian":[1.8659978E2,1.7486484E2,1.1734948E1,1.6480676E2,1.0058071E1,1.563669E2,8.439872E0,1.5127649E2,5.0904007E0],"tree_param":{"num_deleted":"0","num_feature":"10","num_nodes":"9","size_leaf_vector":"1"}},{"base_weights":[-5.543473E-1,-6.777403E-1,5.800247E-2,-7.977488E-1,5.748359E-2,-9.110952E-1,5.5217244E-2,-4.9711075E-2,-1.1528835E-2],"categories":[],"categories_nodes":[],"categories_segments":[],"categories_sizes":[],"default_left":[0,0,0,0,0,0,0,0,0],"id":37,"left_children":[1,3,-1,5,-1,7,-1,-1,-1],"loss_changes":[3.890907E1,3.7923424E1,0E0,3.5271828E1,0E0,8.286911E0,0E0,0E0,0E0],"parents":[2147483647,0,0,1,1,3,3,5,5],"right_children":[2,4,-1,6,-1,8,-1,-1,-1],"split_conditions":[1E0,1E0,5.800247E-2,1E0,5.748359E-2,2.03E2,5.5217244E-2,-4.9711075E-2,-1.1528835E-2],"split_indices":[6,8,0,7,0,4,0,0,0],"split_type":[0,0,0,0,0,0,0,0,0],"sum_hessian":[1.7921194E2,1.6774336E2,1.1468583E1,1.5793501E2,9.808343E0,1.495446E2,8.3904085E0,1.3285518E2,1.6689434E1],"tree_param":{"num_deleted":"0","num_feature":"10","num_nodes":"9","size_leaf_vector":"1"}},{"base_weights":[-5.386366E-1,-6.563785E-1,5.7124734E-2,-7.731281E-1,5.4845985E-2,-8.802515E-1,5.5956658E-2,-4.8059385E-2,-7.5965086E-3],"categories":[],"categories_nodes":[],"categories_segments":[],"categories_sizes":[],"default_left":[0,0,0,0,0,0,0,0,0],"id":38,"left_children":[1,3,-1,5,-1,7,-1,-1,-1],"loss_changes":[3.4714268E1,3.380294E1,0E0,3.1700897E1,0E0,8.340668E0,0E0,0E0,0E0],"parents":[2147483647,0,0,1,1,3,3,5,5],"right_children":[2,4,-1,6,-1,8,-1,-1,-1],"split_conditions":[1E0,1E0,5.7124734E-2,1E0,5.4845985E-2,2.05E2,5.5956658E-2,-4.8059385E-2,-7.5965086E-3],"split_indices":[6,7,0,8,0,4,0,0,0],"split_type":[0,0,0,0,0,0,0,0,0],"sum_hessian":[1.7058957E2,1.5999362E2,1.0595958E1,1.5052914E2,9.464471E0,1.4297023E2,7.558919E0,1.283836E2,1.4586618E1],"tree_param":{"num_deleted":"0","num_feature":"10","num_nodes":"9","size_leaf_vector":"1"}},{"base_weights":[-5.1727545E-1,-6.3353133E-1,5.6161206E-2,-7.499875E-1,5.4229524E-2,-8.5333675E-1,5.5147883E-2,-4.777595E-2,-6.177865E-3],"categories":[],"categories_nodes":[],"categories_segments":[],"categories_sizes":[],"default_left":[0,0,0,0,0,0,0,0,0],"id":39,"left_children":[1,3,-1,5,-1,7,-1,-1,-1],"loss_changes":[3.2010864E1,3.1605026E1,0E0,2.8654068E1,0E0,1.0145294E1,0E0,0E0,0E0],"parents":[2147483647,0,0,1,1,3,3,5,5],"right_children":[2,4,-1,6,-1,8,-1,-1,-1],"split_conditions":[1E0,1E0,5.6161206E-2,1E0,5.4229524E-2,2.03E2,5.5147883E-2,-4.777595E-2,-6.177865E-3],"split_indices":[6,7,0,8,0,4,0,0,0],"split_type":[0,0,0,0,0,0,0,0,0],"sum_hessian":[1.63113E2,1.5289195E2,1.02210455E1,1.4371432E2,9.1776285E0,1.36633E2,7.081329E0,1.19580284E2,1.7052717E1],"tree_param":{"num_deleted":"0","num_feature":"10","num_nodes":"9","size_leaf_vector":"1"}},{"base_weights":[-5.3389966E-1,-6.5098715E-1,5.539787E-2,-7.5473195E-1,5.311669E-2,-8.494827E-1,6.0960926E-2,-4.5600306E-2,-4.7926577E-3],"categories":[],"categories_nodes":[],"categories_segments":[],"categories_sizes":[],"default_left":[0,0,0,0,0,0,0,0,0],"id":40,"left_children":[1,3,-1,5,-1,7,-1,-1,-1],"loss_changes":[3.1257977E1,2.7268837E1,0E0,2.7404633E1,0E0,6.2792206E0,0E0,0E0,0E0],"parents":[2147483647,0,0,1,1,3,3,5,5],"right_children":[2,4,-1,6,-1,8,-1,-1,-1],"split_conditions":[1E0,1E0,5.539787E-2,1E0,5.311669E-2,5.62E1,6.0960926E-2,-4.5600306E-2,-4.7926577E-3],"split_indices":[6,7,0,5,0,3,0,0,0],"split_type":[0,0,0,0,0,0,0,0,0],"sum_hessian":[1.5784604E2,1.4790205E2,9.943991E0,1.3998518E2,7.916872E0,1.3411713E2,5.868045E0,1.2364871E2,1.0468422E1],"tree_param":{"num_deleted":"0","num_feature":"10","num_nodes":"9","size_leaf_vector":"1"}},{"base_weights":[-5.0588846E-1,-6.2682444E-1,5.5125277E-2,-7.581797E-1,5.574701E-2,-8.657271E-1,5.2188326E-2,-4.8199493E-2,5.9013665E-2],"categories":[],"categories_nodes":[],"categories_segments":[],"categories_sizes":[],"default_left":[0,0,0,0,0,0,0,0,0],"id":41,"left_children":[1,3,-1,5,-1,7,-1,-1,-1],"loss_changes":[3.0803654E1,3.3933292E1,0E0,2.7080437E1,0E0,2.6874405E1,0E0,0E0,0E0],"parents":[2147483647,0,0,1,1,3,3,5,5],"right_children":[2,4,-1,6,-1,8,-1,-1,-1],"split_conditions":[1E0,1E0,5.5125277E-2,1E0,5.574701E-2,1E0,5.2188326E-2,-4.8199493E-2,5.9013665E-2],"split_indices":[6,8,0,7,0,5,0,0,0],"split_type":[0,0,0,0,0,0,0,0,0],"sum_hessian":[1.5381032E2,1.4362161E2,1.0188704E1,1.3407504E2,9.546572E0,1.270139E2,7.0611424E0,1.2169798E2,5.315915E0],"tree_param":{"num_deleted":"0","num_feature":"10","num_nodes":"9","size_leaf_vector":"1"}},{"base_weights":[-5.0911963E-1,-6.3401854E-1,5.4455765E-2,-7.57737E-1,3.4046388E-1,-8.35155E-1,5.5653185E-2,-3.473833E-2,4.443183E-2,2.5817195E-2,-4.3838892E-2,-3.4246247E-2,2.4279522E-2],"categories":[],"categories_nodes":[],"categories_segments":[],"categories_sizes":[],"default_left":[0,0,0,0,0,0,0,0,0,0,0,0,0],"id":42,"left_children":[1,3,-1,5,7,9,-1,11,-1,-1,-1,-1,-1],"loss_changes":[3.0049599E1,1.6780682E1,0E0,1.858751E1,3.3482518E0,7.070633E0,0E0,3.8976007E0,0E0,0E0,0E0,0E0,0E0],"parents":[2147483647,0,0,1,1,3,3,4,4,5,5,7,7],"right_children":[2,4,-1,6,8,10,-1,12,-1,-1,-1,-1,-1],"split_conditions":[1E0,5.67E1,5.4455765E-2,1E0,1.75E2,1.58E1,5.5653185E-2,6.15E1,4.443183E-2,2.5817195E-2,-4.3838892E-2,-3.4246247E-2,2.4279522E-2],"split_indices":[6,3,0,5,4,3,0,3,0,0,0,0,0],"split_type":[0,0,0,0,0,0,0,0,0,0,0,0,0],"sum_hessian":[1.4607649E2,1.3604791E2,1.0028575E1,1.20918724E2,1.5129193E1,1.1664526E2,4.273463E0,9.53767E0,5.591523E0,3.1442926E0,1.1350097E2,4.099159E0,5.438512E0],"tree_param":{"num_deleted":"0","num_feature":"10","num_nodes":"13","size_leaf_vector":"1"}},{"base_weights":[-5.082972E-1,-6.2588525E-1,5.4672178E-2,-7.5252867E-1,5.3410884E-2,-8.665227E-1,5.1489998E-2,-4.8296086E-2,5.6574594E-2],"categories":[],"categories_nodes":[],"categories_segments":[],"categories_sizes":[],"default_left":[0,0,0,0,0,0,0,0,0],"id":43,"left_children":[1,3,-1,5,-1,7,-1,-1,-1],"loss_changes":[2.7486423E1,2.9382832E1,0E0,2.6193237E1,0E0,2.4445374E1,0E0,0E0,0E0],"parents":[2147483647,0,0,1,1,3,3,5,5],"right_children":[2,4,-1,6,-1,8,-1,-1,-1],"split_conditions":[1E0,1E0,5.4672178E-2,1E0,5.3410884E-2,1E0,5.1489998E-2,-4.8296086E-2,5.6574594E-2],"split_indices":[8,6,0,7,0,5,0,0,0],"split_type":[0,0,0,0,0,0,0,0,0],"sum_hessian":[1.4130254E2,1.3220618E2,9.096361E0,1.2352761E2,8.678563E0,1.165849E2,6.942706E0,1.1155188E2,5.033022E0],"tree_param":{"num_deleted":"0","num_feature":"10","num_nodes":"9","size_leaf_vector":"1"}},{"base_weights":[-5.058887E-1,-6.228718E-1,5.287814E-2,-7.469129E-1,5.3942163E-2,-8.678165E-1,5.1123153E-2,-4.8591882E-2,5.5779494E-2],"categories":[],"categories_nodes":[],"categories_segments":[],"categories_sizes":[],"default_left":[0,0,0,0,0,0,0,0,0],"id":44,"left_children":[1,3,-1,5,-1,7,-1,-1,-1],"loss_changes":[2.5657478E1,2.7781326E1,0E0,2.649498E1,0E0,2.4313133E1,0E0,0E0,0E0],"parents":[2147483647,0,0,1,1,3,3,5,5],"right_children":[2,4,-1,6,-1,8,-1,-1,-1],"split_conditions":[1E0,1E0,5.287814E-2,1E0,5.3942163E-2,1E0,5.1123153E-2,-4.8591882E-2,5.5779494E-2],"split_indices":[6,8,0,7,0,5,0,0,0],"split_type":[0,0,0,0,0,0,0,0,0],"sum_hessian":[1.3568181E2,1.26796074E2,8.885737E0,1.1870456E2,8.091507E0,1.1158908E2,7.115482E0,1.0651295E2,5.076132E0],"tree_param":{"num_deleted":"0","num_feature":"10","num_nodes":"9","size_leaf_vector":"1"}},{"base_weights":[-5.076147E-1,-6.1126524E-1,5.10099E-2,-6.926226E-1,5.4833736E-2,1.0434919E-3,-9.2475796E-1,-2.16543E-2,2.9612154E-2,-4.696682E-2,2.493532E-3],"categories":[],"categories_nodes":[],"categories_segments":[],"categories_sizes":[],"default_left":[0,0,0,0,0,0,0,0,0,0,0],"id":45,"left_children":[1,3,-1,5,-1,7,9,-1,-1,-1,-1],"loss_changes":[2.1185646E1,1.7742573E1,0E0,1.8885319E1,0E0,8.060084E0,1.2953796E0,0E0,0E0,0E0,0E0],"parents":[2147483647,0,0,1,1,3,3,5,5,6,6],"right_children":[2,4,-1,6,-1,8,10,-1,-1,-1,-1],"split_conditions":[1E0,1E0,5.10099E-2,1.385E3,5.4833736E-2,3.016E2,2.28E2,-2.16543E-2,2.9612154E-2,-4.696682E-2,2.493532E-3],"split_indices":[7,5,0,2,0,0,4,0,0,0,0],"split_type":[0,0,0,0,0,0,0,0,0,0,0],"sum_hessian":[1.288447E2,1.21220695E2,7.6240053E0,1.1627637E2,4.9443307E0,2.9404732E1,8.6871635E1,1.7108828E1,1.2295903E1,8.562704E1,1.2445996E0],"tree_param":{"num_deleted":"0","num_feature":"10","num_nodes":"11","size_leaf_vector":"1"}},{"base_weights":[-4.7197908E-1,-5.971134E-1,5.3860236E-2,-7.181644E-1,5.1518526E-2,-8.282049E-1,4.9493376E-2,-4.6183925E-2,-5.281862E-3],"categories":[],"categories_nodes":[],"categories_segments":[],"categories_sizes":[],"default_left":[0,0,0,0,0,0,0,0,0],"id":46,"left_children":[1,3,-1,5,-1,7,-1,-1,-1],"loss_changes":[2.5072119E1,2.383746E1,0E0,2.1440796E1,0E0,7.050606E0,0E0,0E0,0E0],"parents":[2147483647,0,0,1,1,3,3,5,5],"right_children":[2,4,-1,6,-1,8,-1,-1,-1],"split_conditions":[1E0,1E0,5.3860236E-2,1E0,5.1518526E-2,2.05E2,4.9493376E-2,-4.6183925E-2,-5.281862E-3],"split_indices":[8,6,0,7,0,4,0,0,0],"split_type":[0,0,0,0,0,0,0,0,0],"sum_hessian":[1.2501574E2,1.1624101E2,8.774726E0,1.087137E2,7.527317E0,1.0261764E2,6.0960603E0,9.039529E1,1.222235E1],"tree_param":{"num_deleted":"0","num_feature":"10","num_nodes":"9","size_leaf_vector":"1"}},{"base_weights":[-4.9762332E-1,-6.184786E-1,5.2953005E-2,-7.444075E-1,5.120424E-2,-8.6043113E-1,4.9201466E-2,-4.8714012E-2,5.4439794E-2],"categories":[],"categories_nodes":[],"categories_segments":[],"categories_sizes":[],"default_left":[0,0,0,0,0,0,0,0,0],"id":47,"left_children":[1,3,-1,5,-1,7,-1,-1,-1],"loss_changes":[2.367843E1,2.438272E1,0E0,2.223238E1,0E0,2.335601E1,0E0,0E0,0E0],"parents":[2147483647,0,0,1,1,3,3,5,5],"right_children":[2,4,-1,6,-1,8,-1,-1,-1],"split_conditions":[1E0,1E0,5.2953005E-2,1E0,5.120424E-2,1E0,4.9201466E-2,-4.8714012E-2,5.4439794E-2],"split_indices":[8,6,0,7,0,5,0,0,0],"split_type":[0,0,0,0,0,0,0,0,0],"sum_hessian":[1.2137819E2,1.1319299E2,8.1852E0,1.0564073E2,7.552257E0,9.9466125E1,6.1746078E0,9.444974E1,5.0163836E0],"tree_param":{"num_deleted":"0","num_feature":"10","num_nodes":"9","size_leaf_vector":"1"}},{"base_weights":[-4.5477957E-1,-5.7588655E-1,5.2364577E-2,-6.797208E-1,4.897569E-2,-7.8523266E-1,5.4089475E-2,-1.1716568E-2,-4.6779558E-2],"categories":[],"categories_nodes":[],"categories_segments":[],"categories_sizes":[],"default_left":[0,0,0,0,0,0,0,0,0],"id":48,"left_children":[1,3,-1,5,-1,7,-1,-1,-1],"loss_changes":[2.1852718E1,1.822816E1,0E0,1.9905312E1,0E0,7.841465E0,0E0,0E0,0E0],"parents":[2147483647,0,0,1,1,3,3,5,5],"right_children":[2,4,-1,6,-1,8,-1,-1,-1],"split_conditions":[1E0,1E0,5.2364577E-2,1E0,4.897569E-2,1.382E3,5.4089475E-2,-1.1716568E-2,-4.6779558E-2],"split_indices":[8,7,0,5,0,2,0,0,0],"split_type":[0,0,0,0,0,0,0,0,0],"sum_hessian":[1.1581299E2,1.0774266E2,8.070326E0,1.0152792E2,6.214735E0,9.631314E1,5.214785E0,2.1199259E1,7.5113884E1],"tree_param":{"num_deleted":"0","num_feature":"10","num_nodes":"9","size_leaf_vector":"1"}},{"base_weights":[-4.510293E-1,-5.727546E-1,5.1893033E-2,-7.0496225E-1,5.0859362E-2,-8.240654E-1,5.396842E-2,-4.7291707E-2,4.7815587E-2],"categories":[],"categories_nodes":[],"categories_segments":[],"categories_sizes":[],"default_left":[0,0,0,0,0,0,0,0,0],"id":49,"left_children":[1,3,-1,5,-1,7,-1,-1,-1],"loss_changes":[2.1134651E1,2.287519E1,0E0,2.169754E1,0E0,2.092588E1,0E0,0E0,0E0],"parents":[2147483647,0,0,1,1,3,3,5,5],"right_children":[2,4,-1,6,-1,8,-1,-1,-1],"split_conditions":[1E0,1E0,5.1893033E-2,1E0,5.0859362E-2,1E0,5.396842E-2,-4.7291707E-2,4.7815587E-2],"split_indices":[8,6,0,5,0,7,0,0,0],"split_type":[0,0,0,0,0,0,0,0,0],"sum_hessian":[1.1233428E2,1.0441321E2,7.9210677E0,9.69114E1,7.5018106E0,9.1351875E1,5.5595264E0,8.594258E1,5.4092917E0],"tree_param":{"num_deleted":"0","num_feature":"10","num_nodes":"9","size_leaf_vector":"1"}},{"base_weights":[-4.5624822E-1,-5.845266E-1,5.0802577E-2,-7.1017605E-1,5.051148E-2,-8.198978E-1,5.2294977E-2,-4.6506923E-2,4.649237E-2],"categories":[],"categories_nodes":[],"categories_segments":[],"categories_sizes":[],"default_left":[0,0,0,0,0,0,0,0,0],"id":50,"left_children":[1,3,-1,5,-1,7,-1,-1,-1],"loss_changes":[2.090129E1,2.0663486E1,0E0,1.874942E1,0E0,1.783141E1,0E0,0E0,0E0],"parents":[2147483647,0,0,1,1,3,3,5,5],"right_children":[2,4,-1,6,-1,8,-1,-1,-1],"split_conditions":[1E0,1E0,5.0802577E-2,1E0,5.051148E-2,1E0,5.2294977E-2,-4.6506923E-2,4.649237E-2],"split_indices":[6,8,0,5,0,7,0,0,0],"split_type":[0,0,0,0,0,0,0,0,0],"sum_hessian":[1.0652369E2,9.8541E1,7.982687E0,9.185825E1,6.682751E0,8.6958115E1,4.9001374E0,8.224479E1,4.713326E0],"tree_param":{"num_deleted":"0","num_feature":"10","num_nodes":"9","size_leaf_vector":"1"}},{"base_weights":[-4.4862634E-1,-5.769348E-1,5.0213214E-2,-7.1263427E-1,5.0451774E-2,-8.204505E-1,4.6488952E-2,-4.556793E-2,-6.048668E-3],"categories":[],"categories_nodes":[],"categories_segments":[],"categories_sizes":[],"default_left":[0,0,0,0,0,0,0,0,0],"id":51,"left_children":[1,3,-1,5,-1,7,-1,-1,-1],"loss_changes":[1.9569954E1,2.1000854E1,0E0,1.623912E1,0E0,5.1386414E0,0E0,0E0,0E0],"parents":[2147483647,0,0,1,1,3,3,5,5],"right_children":[2,4,-1,6,-1,8,-1,-1,-1],"split_conditions":[1E0,1E0,5.0213214E-2,1E0,5.0451774E-2,2.05E2,4.6488952E-2,-4.556793E-2,-6.048668E-3],"split_indices":[6,8,0,7,0,4,0,0,0],"split_type":[0,0,0,0,0,0,0,0,0],"sum_hessian":[1.0087077E2,9.323946E1,7.631307E0,8.639773E1,6.841737E0,8.154516E1,4.8525715E0,7.1897964E1,9.64719E0],"tree_param":{"num_deleted":"0","num_feature":"10","num_nodes":"9","size_leaf_vector":"1"}},{"base_weights":[-4.5575956E-1,-5.703137E-1,4.9037658E-2,-6.961303E-1,4.9535148E-2,-8.10522E-1,4.656204E-2,-4.605908E-2,5.0057273E-2],"categories":[],"categories_nodes":[],"categories_segments":[],"categories_sizes":[],"default_left":[0,0,0,0,0,0,0,0,0],"id":52,"left_children":[1,3,-1,5,-1,7,-1,-1,-1],"loss_changes":[1.6746668E1,1.8706692E1,0E0,1.6667667E1,0E0,1.704094E1,0E0,0E0,0E0],"parents":[2147483647,0,0,1,1,3,3,5,5],"right_children":[2,4,-1,6,-1,8,-1,-1,-1],"split_conditions":[1E0,1E0,4.9037658E-2,1E0,4.9535148E-2,1E0,4.656204E-2,-4.605908E-2,5.0057273E-2],"split_indices":[6,8,0,7,0,5,0,0,0],"split_type":[0,0,0,0,0,0,0,0,0],"sum_hessian":[9.736828E1,9.073559E1,6.632685E0,8.448058E1,6.2550077E0,7.940123E1,5.0793557E0,7.529369E1,4.1075315E0],"tree_param":{"num_deleted":"0","num_feature":"10","num_nodes":"9","size_leaf_vector":"1"}},{"base_weights":[-4.4297698E-1,-5.531262E-1,4.9054753E-2,-6.4398223E-1,5.0106402E-2,-7.45632E-1,4.558061E-2,-1.1302642E-2,-4.489659E-2],"categories":[],"categories_nodes":[],"categories_segments":[],"categories_sizes":[],"default_left":[0,0,0,0,0,0,0,0,0],"id":53,"left_children":[1,3,-1,5,-1,7,-1,-1,-1],"loss_changes":[1.5485834E1,1.3230473E1,0E0,1.4081997E1,0E0,6.1361427E0,0E0,0E0,0E0],"parents":[2147483647,0,0,1,1,3,3,5,5],"right_children":[2,4,-1,6,-1,8,-1,-1,-1],"split_conditions":[1E0,1E0,4.9054753E-2,1E0,5.0106402E-2,1.382E3,4.558061E-2,-1.1302642E-2,-4.489659E-2],"split_indices":[8,5,0,7,0,2,0,0,0],"split_type":[0,0,0,0,0,0,0,0,0],"sum_hessian":[9.426405E1,8.806405E1,6.1999974E0,8.3757E1,4.3070483E0,7.9108376E1,4.6486316E0,1.8495207E1,6.0613167E1],"tree_param":{"num_deleted":"0","num_feature":"10","num_nodes":"9","size_leaf_vector":"1"}},{"base_weights":[-4.266986E-1,-5.355132E-1,4.845335E-2,-6.257731E-1,4.504591E-2,-8.011547E-1,-1.9152914E-1,-4.510853E-2,-5.1348894E-3,2.4802377E-2,-3.7488326E-2],"categories":[],"categories_nodes":[],"categories_segments":[],"categories_sizes":[],"default_left":[0,0,0,0,0,0,0,0,0,0,0],"id":54,"left_children":[1,3,-1,5,-1,7,9,-1,-1,-1,-1],"loss_changes":[1.4388958E1,1.1631109E1,0E0,6.0081673E0,0E0,3.951271E0,9.810169E0,0E0,0E0,0E0,0E0],"parents":[2147483647,0,0,1,1,3,3,5,5,6,6],"right_children":[2,4,-1,6,-1,8,10,-1,-1,-1,-1],"split_conditions":[1E0,1E0,4.845335E-2,3.017E2,4.504591E-2,2.05E2,1.424E3,-4.510853E-2,-5.1348894E-3,2.4802377E-2,-3.7488326E-2],"split_indices":[8,7,0,0,0,4,2,0,0,0,0],"split_type":[0,0,0,0,0,0,0,0,0,0,0],"sum_hessian":[9.0322365E1,8.436181E1,5.9605603E0,7.990522E1,4.456583E0,5.631563E1,2.3589594E1,4.8945164E1,7.370468E0,1.0620191E1,1.2969402E1],"tree_param":{"num_deleted":"0","num_feature":"10","num_nodes":"11","size_leaf_vector":"1"}},{"base_weights":[-4.363128E-1,-5.4600143E-1,4.7973793E-2,-6.591699E-1,4.7122534E-2,-7.7315855E-1,4.996268E-2,-4.469796E-2,4.4774566E-2],"categories":[],"categories_nodes":[],"categories_segments":[],"categories_sizes":[],"default_left":[0,0,0,0,0,0,0,0,0],"id":55,"left_children":[1,3,-1,5,-1,7,-1,-1,-1],"loss_changes":[1.3948551E1,1.442252E1,0E0,1.527816E1,0E0,1.5386658E1,0E0,0E0,0E0],"parents":[2147483647,0,0,1,1,3,3,5,5],"right_children":[2,4,-1,6,-1,8,-1,-1,-1],"split_conditions":[1E0,1E0,4.7973793E-2,1E0,4.7122534E-2,1E0,4.996268E-2,-4.469796E-2,4.4774566E-2],"split_indices":[8,6,0,5,0,7,0,0,0],"split_type":[0,0,0,0,0,0,0,0,0],"sum_hessian":[8.6684425E1,8.093309E1,5.7513394E0,7.573224E1,5.2008505E0,7.136116E1,4.3710794E0,6.697669E1,4.3844633E0],"tree_param":{"num_deleted":"0","num_feature":"10","num_nodes":"9","size_leaf_vector":"1"}},{"base_weights":[-4.3141973E-1,-5.5887794E-1,4.8403222E-2,-6.9270647E-1,4.798702E-2,-8.1831706E-1,4.9880967E-2,-4.671195E-2,4.3726247E-2],"categories":[],"categories_nodes":[],"categories_segments":[],"categories_sizes":[],"default_left":[0,0,0,0,0,0,0,0,0],"id":56,"left_children":[1,3,-1,5,-1,7,-1,-1,-1],"loss_changes":[1.5866847E1,1.6797739E1,0E0,1.6429039E1,0E0,1.4356575E1,0E0,0E0,0E0],"parents":[2147483647,0,0,1,1,3,3,5,5],"right_children":[2,4,-1,6,-1,8,-1,-1,-1],"split_conditions":[1E0,1E0,4.8403222E-2,1E0,4.798702E-2,1E0,4.9880967E-2,-4.671195E-2,4.3726247E-2],"split_indices":[6,8,0,5,0,7,0,0,0],"split_type":[0,0,0,0,0,0,0,0,0],"sum_hessian":[8.4918724E1,7.838083E1,6.537892E0,7.253273E1,5.8481026E0,6.799575E1,4.5369806E0,6.405737E1,3.9383793E0],"tree_param":{"num_deleted":"0","num_feature":"10","num_nodes":"9","size_leaf_vector":"1"}},{"base_weights":[-4.2401874E-1,-5.4361844E-1,4.7451094E-2,-6.639043E-1,4.6660434E-2,-7.7242804E-1,4.7878053E-2,-4.4876415E-2,4.406408E-2],"categories":[],"categories_nodes":[],"categories_segments":[],"categories_sizes":[],"default_left":[0,0,0,0,0,0,0,0,0],"id":57,"left_children":[1,3,-1,5,-1,7,-1,-1,-1],"loss_changes":[1.3783685E1,1.3935045E1,0E0,1.3039074E1,0E0,1.4458443E1,0E0,0E0,0E0],"parents":[2147483647,0,0,1,1,3,3,5,5],"right_children":[2,4,-1,6,-1,8,-1,-1,-1],"split_conditions":[1E0,1E0,4.7451094E-2,1E0,4.6660434E-2,1E0,4.7878053E-2,-4.4876415E-2,4.406408E-2],"split_indices":[6,8,0,5,0,7,0,0,0],"split_type":[0,0,0,0,0,0,0,0,0],"sum_hessian":[7.9795074E1,7.395707E1,5.8380055E0,6.889602E1,5.061051E0,6.506489E1,3.8311322E0,6.091411E1,4.1507816E0],"tree_param":{"num_deleted":"0","num_feature":"10","num_nodes":"9","size_leaf_vector":"1"}},{"base_weights":[-4.0242225E-1,-5.173773E-1,4.6798255E-2,-5.8873993E-1,4.419833E-2,-2.2263635E-2,-7.671753E-1,-2.9213656E-2,2.9651646E-2,2.3595167E-2,-4.1290108E-2],"categories":[],"categories_nodes":[],"categories_segments":[],"categories_sizes":[],"default_left":[0,0,0,0,0,0,0,0,0,0,0],"id":58,"left_children":[1,3,-1,5,-1,7,9,-1,-1,-1,-1],"loss_changes":[1.2285188E1,7.6485977E0,0E0,6.8993187E0,0E0,6.3705225E0,4.167509E0,0E0,0E0,0E0,0E0],"parents":[2147483647,0,0,1,1,3,3,5,5,6,6],"right_children":[2,4,-1,6,-1,8,10,-1,-1,-1,-1],"split_conditions":[1E0,1E0,4.6798255E-2,1.378E3,4.419833E-2,3.016E2,1.58E1,-2.9213656E-2,2.9651646E-2,2.3595167E-2,-4.1290108E-2],"split_indices":[8,5,0,2,0,0,3,0,0,0,0],"split_type":[0,0,0,0,0,0,0,0,0,0,0],"sum_hessian":[7.570202E1,7.027912E1,5.4228926E0,6.74254E1,2.8537261E0,1.6420435E1,5.1004963E1,8.608178E0,7.8122563E0,1.9858001E0,4.9019165E1],"tree_param":{"num_deleted":"0","num_feature":"10","num_nodes":"11","size_leaf_vector":"1"}},{"base_weights":[-4.1663122E-1,-5.419815E-1,4.70421E-2,-6.6950744E-1,4.6223518E-2,-7.82255E-1,4.6868436E-2,-4.3035716E-2,2.0324409E-2],"categories":[],"categories_nodes":[],"categories_segments":[],"categories_sizes":[],"default_left":[0,0,0,0,0,0,0,0,0],"id":59,"left_children":[1,3,-1,5,-1,7,-1,-1,-1],"loss_changes":[1.3444935E1,1.37518215E1,0E0,1.25432625E1,0E0,6.081936E0,0E0,0E0,0E0],"parents":[2147483647,0,0,1,1,3,3,5,5],"right_children":[2,4,-1,6,-1,8,-1,-1,-1],"split_conditions":[1E0,1E0,4.70421E-2,1E0,4.6223518E-2,6.15E1,4.6868436E-2,-4.3035716E-2,2.0324409E-2],"split_indices":[6,8,0,5,0,3,0,0,0],"split_type":[0,0,0,0,0,0,0,0,0],"sum_hessian":[7.501691E1,6.922532E1,5.791587E0,6.4186935E1,5.038388E0,6.045804E1,3.7288957E0,5.6973618E1,3.4844222E0],"tree_param":{"num_deleted":"0","num_feature":"10","num_nodes":"9","size_leaf_vector":"1"}},{"base_weights":[-3.8944677E-1,-5.072033E-1,4.6324432E-2,-6.33697E-1,4.5886915E-2,-7.478998E-1,4.6604224E-2,-4.415927E-2,4.3784283E-2],"categories":[],"categories_nodes":[],"categories_segments":[],"categories_sizes":[],"default_left":[0,0,0,0,0,0,0,0,0],"id":60,"left_children":[1,3,-1,5,-1,7,-1,-1,-1],"loss_changes":[1.1888927E1,1.2889446E1,0E0,1.2017611E1,0E0,1.3855423E1,0E0,0E0,0E0],"parents":[2147483647,0,0,1,1,3,3,5,5],"right_children":[2,4,-1,6,-1,8,-1,-1,-1],"split_conditions":[1E0,1E0,4.6324432E-2,1E0,4.5886915E-2,1E0,4.6604224E-2,-4.415927E-2,4.3784283E-2],"split_indices":[6,8,0,5,0,7,0,0,0],"split_type":[0,0,0,0,0,0,0,0,0],"sum_hessian":[7.269006E1,6.7283745E1,5.40632E0,6.2307884E1,4.9758587E0,5.8559124E1,3.7487588E0,5.4475933E1,4.083192E0],"tree_param":{"num_deleted":"0","num_feature":"10","num_nodes":"9","size_leaf_vector":"1"}},{"base_weights":[-3.926818E-1,-4.9453923E-1,4.4806045E-2,-5.950567E-1,4.620443E-2,-7.00266E-1,4.2611785E-2,-4.4905912E-2,-8.171021E-3],"categories":[],"categories_nodes":[],"categories_segments":[],"categories_sizes":[],"default_left":[0,0,0,0,0,0,0,0,0],"id":61,"left_children":[1,3,-1,5,-1,7,-1,-1,-1],"loss_changes":[9.652989E0,9.913225E0,0E0,1.0026258E1,0E0,6.0433826E0,0E0,0E0,0E0],"parents":[2147483647,0,0,1,1,3,3,5,5],"right_children":[2,4,-1,6,-1,8,-1,-1,-1],"split_conditions":[1E0,1E0,4.4806045E-2,1E0,4.620443E-2,3.019E2,4.2611785E-2,-4.4905912E-2,-8.171021E-3],"split_indices":[8,5,0,7,0,0,0,0,0],"split_type":[0,0,0,0,0,0,0,0,0],"sum_hessian":[6.915718E1,6.466298E1,4.494202E0,6.0926544E1,3.7364364E0,5.7278873E1,3.6476686E0,4.1362095E1,1.5916778E1],"tree_param":{"num_deleted":"0","num_feature":"10","num_nodes":"9","size_leaf_vector":"1"}},{"base_weights":[-3.9198738E-1,-5.149303E-1,4.5859624E-2,-6.2337726E-1,4.600153E-2,-7.5086546E-1,4.338738E-2,-4.4119336E-2,-1.8818824E-2],"categories":[],"categories_nodes":[],"categories_segments":[],"categories_sizes":[],"default_left":[0,0,0,0,0,0,0,0,0],"id":62,"left_children":[1,3,-1,5,-1,7,-1,-1,-1],"loss_changes":[1.1399646E1,1.0331226E1,0E0,1.1847269E1,0E0,2.36652E0,0E0,0E0,0E0],"parents":[2147483647,0,0,1,1,3,3,5,5],"right_children":[2,4,-1,6,-1,8,-1,-1,-1],"split_conditions":[1E0,1E0,4.5859624E-2,1E0,4.600153E-2,4.85E1,4.338738E-2,-4.4119336E-2,-1.8818824E-2],"split_indices":[6,5,0,7,0,3,0,0,0],"split_type":[0,0,0,0,0,0,0,0,0],"sum_hessian":[6.689101E1,6.170324E1,5.187772E0,5.7893524E1,3.8097153E0,5.3790947E1,4.1025753E0,3.8805977E1,1.4984971E1],"tree_param":{"num_deleted":"0","num_feature":"10","num_nodes":"9","size_leaf_vector":"1"}},{"base_weights":[-3.7241054E-1,-5.0317454E-1,4.6048917E-2,-6.350125E-1,4.5031488E-2,-7.627614E-1,4.291615E-2,-4.431007E-2,4.3936525E-2],"categories":[],"categories_nodes":[],"categories_segments":[],"categories_sizes":[],"default_left":[0,0,0,0,0,0,0,0,0],"id":63,"left_children":[1,3,-1,5,-1,7,-1,-1,-1],"loss_changes":[1.1663202E1,1.1822035E1,0E0,1.1367443E1,0E0,1.1367737E1,0E0,0E0,0E0],"parents":[2147483647,0,0,1,1,3,3,5,5],"right_children":[2,4,-1,6,-1,8,-1,-1,-1],"split_conditions":[1E0,1E0,4.6048917E-2,1E0,4.5031488E-2,1E0,4.291615E-2,-4.431007E-2,4.3936525E-2],"split_indices":[6,8,0,7,0,5,0,0,0],"split_type":[0,0,0,0,0,0,0,0,0],"sum_hessian":[6.522053E1,5.9786926E1,5.433604E0,5.5154728E1,4.632195E0,5.1258953E1,3.8957772E0,4.8101826E1,3.1571257E0],"tree_param":{"num_deleted":"0","num_feature":"10","num_nodes":"9","size_leaf_vector":"1"}},{"base_weights":[-3.8306478E-1,-4.8951444E-1,4.3393124E-2,-5.9563315E-1,4.2920172E-2,-7.8950584E-1,-1.4267586E-1,-4.512766E-2,-4.869272E-3,2.5295356E-2,-3.7346806E-2],"categories":[],"categories_nodes":[],"categories_segments":[],"categories_sizes":[],"default_left":[0,0,0,0,0,0,0,0,0,0,0],"id":64,"left_children":[1,3,-1,5,-1,7,9,-1,-1,-1,-1],"loss_changes":[8.7567425E0,8.850876E0,0E0,4.6854515E0,0E0,2.8885136E0,7.274408E0,0E0,0E0,0E0,0E0],"parents":[2147483647,0,0,1,1,3,3,5,5,6,6],"right_children":[2,4,-1,6,-1,8,10,-1,-1,-1,-1],"split_conditions":[1E0,1E0,4.3393124E-2,3.017E2,4.2920172E-2,2.03E2,1.424E3,-4.512766E-2,-4.869272E-3,2.5295356E-2,-3.7346806E-2],"split_indices":[7,8,0,0,0,4,2,0,0,0,0],"split_type":[0,0,0,0,0,0,0,0,0,0,0],"sum_hessian":[6.157031E1,5.730272E1,4.267588E0,5.363802E1,3.6646981E0,3.7040928E1,1.6597092E1,3.1578947E1,5.4619823E0,8.083466E0,8.513625E0],"tree_param":{"num_deleted":"0","num_feature":"10","num_nodes":"11","size_leaf_vector":"1"}},{"base_weights":[-4.210862E-1,-5.380691E-1,4.4147965E-2,-6.620393E-1,4.34916E-2,-7.755324E-1,4.0848773E-2,-4.2658497E-2,-2.5149522E-2],"categories":[],"categories_nodes":[],"categories_segments":[],"categories_sizes":[],"default_left":[0,0,0,0,0,0,0,0,0],"id":65,"left_children":[1,3,-1,5,-1,7,-1,-1,-1],"loss_changes":[9.734746E0,1.0406376E1,0E0,9.418089E0,0E0,6.1013985E-1,0E0,0E0,0E0],"parents":[2147483647,0,0,1,1,3,3,5,5],"right_children":[2,4,-1,6,-1,8,-1,-1,-1],"split_conditions":[1E0,1E0,4.4147965E-2,1E0,4.34916E-2,3.017E2,4.0848773E-2,-4.2658497E-2,-2.5149522E-2],"split_indices":[6,8,0,7,0,0,0,0,0],"split_type":[0,0,0,0,0,0,0,0,0],"sum_hessian":[5.9698696E1,5.5323166E1,4.3755307E0,5.133291E1,3.9902563E0,4.8116314E1,3.2165933E0,3.579047E1,1.2325843E1],"tree_param":{"num_deleted":"0","num_feature":"10","num_nodes":"9","size_leaf_vector":"1"}},{"base_weights":[-3.7344652E-1,-4.959603E-1,4.440624E-2,-6.099704E-1,4.208963E-2,-7.229628E-1,4.3632545E-2,-4.4470146E-2,-1.1829825E-2],"categories":[],"categories_nodes":[],"categories_segments":[],"categories_sizes":[],"default_left":[0,0,0,0,0,0,0,0,0],"id":66,"left_children":[1,3,-1,5,-1,7,-1,-1,-1],"loss_changes":[9.6429615E0,8.888401E0,0E0,9.204634E0,0E0,3.6834412E0,0E0,0E0,0E0],"parents":[2147483647,0,0,1,1,3,3,5,5],"right_children":[2,4,-1,6,-1,8,-1,-1,-1],"split_conditions":[1E0,1E0,4.440624E-2,1E0,4.208963E-2,1.79E2,4.3632545E-2,-4.4470146E-2,-1.1829825E-2],"split_indices":[6,7,0,5,0,4,0,0,0],"split_type":[0,0,0,0,0,0,0,0,0],"sum_hessian":[5.8539944E1,5.391137E1,4.628574E0,5.0178905E1,3.7324662E0,4.710161E1,3.0772965E0,3.4475143E1,1.2626464E1],"tree_param":{"num_deleted":"0","num_feature":"10","num_nodes":"9","size_leaf_vector":"1"}},{"base_weights":[-3.44754E-1,-4.714442E-1,4.4362124E-2,-6.011392E-1,4.3488007E-2,-7.1908396E-1,4.3349158E-2,-4.2129006E-2,3.9806552E-2],"categories":[],"categories_nodes":[],"categories_segments":[],"categories_sizes":[],"default_left":[0,0,0,0,0,0,0,0,0],"id":67,"left_children":[1,3,-1,5,-1,7,-1,-1,-1],"loss_changes":[9.351315E0,9.66367E0,0E0,9.022804E0,0E0,9.174925E0,0E0,0E0,0E0],"parents":[2147483647,0,0,1,1,3,3,5,5],"right_children":[2,4,-1,6,-1,8,-1,-1,-1],"split_conditions":[1E0,1E0,4.4362124E-2,1E0,4.3488007E-2,1E0,4.3349158E-2,-4.2129006E-2,3.9806552E-2],"split_indices":[6,8,0,5,0,7,0,0,0],"split_type":[0,0,0,0,0,0,0,0,0],"sum_hessian":[5.6232975E1,5.1549324E1,4.683652E0,4.7507156E1,4.042169E0,4.444664E1,3.0605156E0,4.150753E1,2.93911E0],"tree_param":{"num_deleted":"0","num_feature":"10","num_nodes":"9","size_leaf_vector":"1"}},{"base_weights":[-3.0987486E-1,-4.277165E-1,4.3645915E-2,-5.588583E-1,4.338524E-2,-6.8784016E-1,4.3921713E-2,-3.6329225E-2,1.8617501E-2],"categories":[],"categories_nodes":[],"categories_segments":[],"categories_sizes":[],"default_left":[0,0,0,0,0,0,0,0,0],"id":68,"left_children":[1,3,-1,5,-1,7,-1,-1,-1],"loss_changes":[8.081974E0,9.143199E0,0E0,9.2967E0,0E0,2.060997E0,0E0,0E0,0E0],"parents":[2147483647,0,0,1,1,3,3,5,5],"right_children":[2,4,-1,6,-1,8,-1,-1,-1],"split_conditions":[1E0,1E0,4.3645915E-2,1E0,4.338524E-2,2.261E3,4.3921713E-2,-3.6329225E-2,1.8617501E-2],"split_indices":[6,8,0,5,0,2,0,0,0],"split_type":[0,0,0,0,0,0,0,0,0],"sum_hessian":[5.4305542E1,4.996583E1,4.3397093E0,4.5888866E1,4.0769644E0,4.2588436E1,3.3004305E0,4.13905E1,1.1979368E0],"tree_param":{"num_deleted":"0","num_feature":"10","num_nodes":"9","size_leaf_vector":"1"}},{"base_weights":[-3.602192E-1,-4.819833E-1,4.312205E-2,-5.731071E-1,4.0971603E-2,-7.597053E-1,2.4685134E-1,1.770006E-2,-4.0355958E-2,-5.251225E-3,2.4391318E-2],"categories":[],"categories_nodes":[],"categories_segments":[],"categories_sizes":[],"default_left":[0,0,0,0,0,0,0,0,0,0,0],"id":69,"left_children":[1,3,-1,5,-1,7,9,-1,-1,-1,-1],"loss_changes":[8.275466E0,6.239505E0,0E0,7.234647E0,0E0,2.27993E0,8.392387E-1,0E0,0E0,0E0,0E0],"parents":[2147483647,0,0,1,1,3,3,5,5,6,6],"right_children":[2,4,-1,6,-1,8,10,-1,-1,-1,-1],"split_conditions":[1E0,1E0,4.312205E-2,5.36E1,4.0971603E-2,1.58E1,1.19E2,1.770006E-2,-4.0355958E-2,-5.251225E-3,2.4391318E-2],"split_indices":[6,5,0,3,0,3,4,0,0,0,0],"split_type":[0,0,0,0,0,0,0,0,0,0,0],"sum_hessian":[5.179412E1,4.7654068E1,4.140053E0,4.5058727E1,2.5953395E0,3.676548E1,8.293247E0,1.2372569E0,3.5528225E1,3.6002579E0,4.69299E0],"tree_param":{"num_deleted":"0","num_feature":"10","num_nodes":"11","size_leaf_vector":"1"}},{"base_weights":[-3.3893648E-1,-4.5455983E-1,4.243247E-2,-5.8488107E-1,4.2462762E-2,-7.0745224E-1,3.9938126E-2,-4.0128436E-2,-6.945777E-3],"categories":[],"categories_nodes":[],"categories_segments":[],"categories_sizes":[],"default_left":[0,0,0,0,0,0,0,0,0],"id":70,"left_children":[1,3,-1,5,-1,7,-1,-1,-1],"loss_changes":[7.385614E0,8.500696E0,0E0,7.928463E0,0E0,2.0740185E0,0E0,0E0,0E0],"parents":[2147483647,0,0,1,1,3,3,5,5],"right_children":[2,4,-1,6,-1,8,-1,-1,-1],"split_conditions":[1E0,1E0,4.243247E-2,1E0,4.2462762E-2,2.03E2,3.9938126E-2,-4.0128436E-2,-6.945777E-3],"split_indices":[6,8,0,7,0,4,0,0,0],"split_type":[0,0,0,0,0,0,0,0,0],"sum_hessian":[4.9977474E1,4.610585E1,3.871625E0,4.241747E1,3.6883793E0,3.94146E1,3.0028703E0,3.341296E1,6.00164E0],"tree_param":{"num_deleted":"0","num_feature":"10","num_nodes":"9","size_leaf_vector":"1"}},{"base_weights":[-3.0543643E-1,-4.1605678E-1,4.229897E-2,-5.4119563E-1,4.1731864E-2,-6.7267275E-1,4.286989E-2,-4.0740784E-2,3.9804783E-2],"categories":[],"categories_nodes":[],"categories_segments":[],"categories_sizes":[],"default_left":[0,0,0,0,0,0,0,0,0],"id":71,"left_children":[1,3,-1,5,-1,7,-1,-1,-1],"loss_changes":[6.7172728E0,7.692622E0,0E0,8.4218235E0,0E0,8.907341E0,0E0,0E0,0E0],"parents":[2147483647,0,0,1,1,3,3,5,5],"right_children":[2,4,-1,6,-1,8,-1,-1,-1],"split_conditions":[1E0,1E0,4.229897E-2,1E0,4.1731864E-2,1E0,4.286989E-2,-4.0740784E-2,3.9804783E-2],"split_indices":[8,6,0,5,0,7,0,0,0],"split_type":[0,0,0,0,0,0,0,0,0],"sum_hessian":[4.8974854E1,4.526477E1,3.7100801E0,4.1663403E1,3.6013703E0,3.855775E1,3.1056502E0,3.5561462E1,2.9962907E0],"tree_param":{"num_deleted":"0","num_feature":"10","num_nodes":"9","size_leaf_vector":"1"}},{"base_weights":[-2.8771567E-1,-6.3765633E-1,1.321421E-1,-7.9040325E-1,3.820453E-2,-1.7044517E-1,5.605234E-1,1.8248212E-2,-8.6553705E-1,-4.5015335E-1,3.8697917E-2,8.351613E-1,-1.572583E-1,-2.1752896E-2,-4.700021E-2,-3.246495E-2,2.0581173E-2,9.067668E-3,4.605667E-2,-1.6374152E-2,3.3990536E-3],"categories":[],"categories_nodes":[],"categories_segments":[],"categories_sizes":[],"default_left":[0,0,0,0,0,0,0,0,0,0,0,0,0,0,0,0,0,0,0,0,0],"id":72,"left_children":[1,3,5,7,-1,9,11,-1,13,15,-1,17,19,-1,-1,-1,-1,-1,-1,-1,-1],"loss_changes":[7.14845E0,6.255477E0,3.0360258E0,2.4247026E0,0E0,4.062785E0,2.028458E0,0E0,3.3175468E-1,2.2375467E0,0E0,2.3309898E-1,1.566399E-1,0E0,0E0,0E0,0E0,0E0,0E0,0E0,0E0],"parents":[2147483647,0,0,1,1,2,2,3,3,5,5,6,6,8,8,9,9,11,11,12,12],"right_children":[2,4,6,8,-1,10,12,-1,14,16,-1,18,20,-1,-1,-1,-1,-1,-1,-1,-1],"split_conditions":[4.48E1,1E0,3.016E2,1.58E1,3.820453E-2,1E0,3.119E2,1.8248212E-2,2.92E1,6.15E1,3.8697917E-2,3.019E2,5.2E1,-2.1752896E-2,-4.700021E-2,-3.246495E-2,2.0581173E-2,9.067668E-3,4.605667E-2,-1.6374152E-2,3.3990536E-3],"split_indices":[3,5,0,3,0,8,1,0,3,3,0,0,3,0,0,0,0,0,0,0,0],"split_type":[0,0,0,0,0,0,0,0,0,0,0,0,0,0,0,0,0,0,0,0,0],"sum_hessian":[4.708014E1,2.5395172E1,2.1684967E1,2.329308E1,2.1020932E0,1.306126E1,8.623707E0,1.186725E0,2.2106354E1,1.0480538E1,2.5807214E0,6.118943E0,2.5047636E0,4.269211E0,1.7837143E1,8.713514E0,1.7670245E0,1.0724584E0,5.046485E0,1.168065E0,1.3366987E0],"tree_param":{"num_deleted":"0","num_feature":"10","num_nodes":"21","size_leaf_vector":"1"}},{"base_weights":[-2.988889E-1,-6.40231E-1,1.10471934E-1,-7.7688116E-1,-2.3354279E-2,-6.802246E-2,4.099833E-2,-2.3783715E-1,-4.5923285E-2,-1.2995985E-1,1.012257E-2,-2.1070473E-1,3.5511643E-2,2.4322359E-2,-2.5237558E-2,1.4729011E-3,-1.3812753E-2,-2.2584097E-2,1.8573647E-2],"categories":[],"categories_nodes":[],"categories_segments":[],"categories_sizes":[],"default_left":[0,0,0,0,0,0,0,0,0,0,0,0,0,0,0,0,0,0,0],"id":73,"left_children":[1,3,5,7,9,11,-1,13,-1,15,-1,17,-1,-1,-1,-1,-1,-1,-1],"loss_changes":[6.4261837E0,2.0849886E0,2.7828445E0,1.3380136E0,1.6004287E-1,2.1627254E0,0E0,1.326543E0,0E0,1.10355176E-1,0E0,2.425254E0,0E0,0E0,0E0,0E0,0E0,0E0,0E0],"parents":[2147483647,0,0,1,1,2,2,3,3,4,4,5,5,7,7,9,9,11,11],"right_children":[2,4,6,8,10,12,-1,14,-1,16,-1,18,-1,-1,-1,-1,-1,-1,-1],"split_conditions":[4.48E1,2.03E2,1E0,2.92E1,2.22E2,1E0,4.099833E-2,1.732E3,-4.5923285E-2,1.555E3,1.012257E-2,1.94E2,3.5511643E-2,2.4322359E-2,-2.5237558E-2,1.4729011E-3,-1.3812753E-2,-2.2584097E-2,1.8573647E-2],"split_indices":[3,4,6,3,4,7,0,2,0,2,0,4,0,0,0,0,0,0,0],"split_type":[0,0,0,0,0,0,0,0,0,0,0,0,0,0,0,0,0,0,0],"sum_hessian":[4.448316E1,2.3949276E1,2.0533882E1,1.9393795E1,4.5554795E0,1.7128761E1,3.4051218E0,4.59176E0,1.4802035E1,3.3828547E0,1.1726247E0,1.509125E1,2.0375104E0,1.0150057E0,3.5767546E0,2.0010026E0,1.381852E0,1.0831843E1,4.259407E0],"tree_param":{"num_deleted":"0","num_feature":"10","num_nodes":"19","size_leaf_vector":"1"}},{"base_weights":[-3.2439467E-1,-4.4270426E-1,4.1488063E-2,-5.617134E-1,3.9989028E-2,-6.878827E-1,4.107081E-2,-4.2457893E-2,-1.1675409E-2],"categories":[],"categories_nodes":[],"categories_segments":[],"categories_sizes":[],"default_left":[0,0,0,0,0,0,0,0,0],"id":74,"left_children":[1,3,-1,5,-1,7,-1,-1,-1],"loss_changes":[6.6485505E0,6.7151566E0,0E0,7.416005E0,0E0,2.4779549E0,0E0,0E0,0E0],"parents":[2147483647,0,0,1,1,3,3,5,5],"right_children":[2,4,-1,6,-1,8,-1,-1,-1],"split_conditions":[1E0,1E0,4.1488063E-2,1E0,3.9989028E-2,1.79E2,4.107081E-2,-4.2457893E-2,-1.1675409E-2],"split_indices":[6,7,0,5,0,4,0,0,0],"split_type":[0,0,0,0,0,0,0,0,0],"sum_hessian":[4.5000126E1,4.137528E1,3.6248484E0,3.825865E1,3.116625E0,3.5521076E1,2.7375755E0,2.5574755E1,9.946322E0],"tree_param":{"num_deleted":"0","num_feature":"10","num_nodes":"9","size_leaf_vector":"1"}},{"base_weights":[-3.0401236E-1,-6.3765097E-1,1.02831215E-1,-7.788668E-1,3.5911765E-2,-6.670318E-2,3.9892346E-2,1.6412972E-2,-8.520323E-1,-2.9431823E-1,4.0793994E-1,-2.0176483E-2,-4.6634175E-2,-2.5070498E-2,3.2861795E-2,2.0952947E-3,3.0597705E-2],"categories":[],"categories_nodes":[],"categories_segments":[],"categories_sizes":[],"default_left":[0,0,0,0,0,0,0,0,0,0,0,0,0,0,0,0,0],"id":75,"left_children":[1,3,5,7,-1,9,-1,-1,11,13,15,-1,-1,-1,-1,-1,-1],"loss_changes":[5.98784E0,5.175907E0,2.4710052E0,2.0873604E0,0E0,2.0018895E0,0E0,0E0,3.9087772E-1,2.7639608E0,4.272492E-1,0E0,0E0,0E0,0E0,0E0,0E0],"parents":[2147483647,0,0,1,1,2,2,3,3,5,5,8,8,9,9,10,10],"right_children":[2,4,6,8,-1,10,-1,-1,12,14,16,-1,-1,-1,-1,-1,-1],"split_conditions":[4.51E1,1E0,1E0,1.58E1,3.5911765E-2,1.89E2,3.9892346E-2,1.6412972E-2,2.92E1,1E0,5.21E1,-2.0176483E-2,-4.6634175E-2,-2.5070498E-2,3.2861795E-2,2.0952947E-3,3.0597705E-2],"split_indices":[3,5,6,3,0,4,0,0,3,7,3,0,0,0,0,0,0],"split_type":[0,0,0,0,0,0,0,0,0,0,0,0,0,0,0,0,0],"sum_hessian":[4.2629925E1,2.3110487E1,1.951944E1,2.1315989E1,1.7944984E0,1.6418516E1,3.1009235E0,1.1052363E0,2.0210752E1,1.1353745E1,5.0647707E0,3.9954383E0,1.6215313E1,9.712931E0,1.6408143E0,2.2440295E0,2.8207412E0],"tree_param":{"num_deleted":"0","num_feature":"10","num_nodes":"17","size_leaf_vector":"1"}},{"base_weights":[-2.93545E-1,-4.045188E-1,4.0234014E-2,-5.263292E-1,4.0010642E-2,-6.5738463E-1,4.0554177E-2,-3.904528E-2,3.6469832E-2],"categories":[],"categories_nodes":[],"categories_segments":[],"categories_sizes":[],"default_left":[0,0,0,0,0,0,0,0,0],"id":76,"left_children":[1,3,-1,5,-1,7,-1,-1,-1],"loss_changes":[5.481757E0,6.1576805E0,0E0,6.861388E0,0E0,6.2968035E0,0E0,0E0,0E0],"parents":[2147483647,0,0,1,1,3,3,5,5],"right_children":[2,4,-1,6,-1,8,-1,-1,-1],"split_conditions":[1E0,1E0,4.0234014E-2,1E0,4.0010642E-2,1E0,4.0554177E-2,-3.904528E-2,3.6469832E-2],"split_indices":[6,8,0,5,0,7,0,0,0],"split_type":[0,0,0,0,0,0,0,0,0],"sum_hessian":[4.1307953E1,3.8090622E1,3.217331E0,3.5104336E1,2.986285E0,3.243449E1,2.6698472E0,3.0182976E1,2.2515118E0],"tree_param":{"num_deleted":"0","num_feature":"10","num_nodes":"9","size_leaf_vector":"1"}},{"base_weights":[-2.956805E-1,-4.153037E-1,4.0963806E-2,-5.1432353E-1,3.8759306E-2,-6.293559E-1,3.7308544E-2,-4.8257653E-3,-3.9852496E-2],"categories":[],"categories_nodes":[],"categories_segments":[],"categories_sizes":[],"default_left":[0,0,0,0,0,0,0,0,0],"id":77,"left_children":[1,3,-1,5,-1,7,-1,-1,-1],"loss_changes":[5.851526E0,4.876041E0,0E0,5.641114E0,0E0,2.8919477E0,0E0,0E0,0E0],"parents":[2147483647,0,0,1,1,3,3,5,5],"right_children":[2,4,-1,6,-1,8,-1,-1,-1],"split_conditions":[1E0,1E0,4.0963806E-2,1E0,3.8759306E-2,1.378E3,3.7308544E-2,-4.8257653E-3,-3.9852496E-2],"split_indices":[8,5,0,7,0,2,0,0,0],"split_type":[0,0,0,0,0,0,0,0,0],"sum_hessian":[4.0321766E1,3.698155E1,3.340219E0,3.466614E1,2.3154068E0,3.2225918E1,2.4402213E0,8.091398E0,2.4134521E1],"tree_param":{"num_deleted":"0","num_feature":"10","num_nodes":"9","size_leaf_vector":"1"}},{"base_weights":[-3.0131477E-1,-6.6864455E-1,1.2502356E-1,-8.544417E-1,3.7180334E-2,-4.6045106E-2,3.9516352E-2,1.6048206E-2,-4.687397E-2,-1.8690094E-1,3.415962E-2,-2.6517173E-2,3.650993E-3],"categories":[],"categories_nodes":[],"categories_segments":[],"categories_sizes":[],"default_left":[0,0,0,0,0,0,0,0,0,0,0,0,0],"id":78,"left_children":[1,3,5,7,-1,9,-1,-1,-1,11,-1,-1,-1],"loss_changes":[6.3647017E0,6.32987E0,2.2449517E0,2.2182484E0,0E0,1.8103137E0,0E0,0E0,0E0,1.334398E0,0E0,0E0,0E0],"parents":[2147483647,0,0,1,1,2,2,3,3,5,5,9,9],"right_children":[2,4,6,8,-1,10,-1,-1,-1,12,-1,-1,-1],"split_conditions":[4.51E1,1E0,1E0,1.58E1,3.7180334E-2,1E0,3.9516352E-2,1.6048206E-2,-4.687397E-2,3.098E2,3.415962E-2,-2.6517173E-2,3.650993E-3],"split_indices":[3,5,6,3,0,7,0,0,0,1,0,0,0],"split_type":[0,0,0,0,0,0,0,0,0,0,0,0,0],"sum_hessian":[3.91075E1,2.0702255E1,1.8405245E1,1.8644363E1,2.0578914E0,1.538111E1,3.0241349E0,1.0411749E0,1.7603188E1,1.3514434E1,1.8666764E0,5.3736444E0,8.14079E0],"tree_param":{"num_deleted":"0","num_feature":"10","num_nodes":"13","size_leaf_vector":"1"}},{"base_weights":[-2.50011E-1,1.883838E-1,-6.2801707E-1,-2.6762143E-1,4.291275E-1,1.3707179E-2,-3.464524E-2,-4.9246383E-1,2.7003402E-2,1.9786194E-1,6.723627E-2,-3.6316603E-2,1.30705675E-2,-3.8947791E-3,3.857431E-2],"categories":[],"categories_nodes":[],"categories_segments":[],"categories_sizes":[],"default_left":[0,0,0,0,0,0,0,0,0,0,0,0,0,0,0],"id":79,"left_children":[1,3,5,7,9,-1,-1,11,-1,13,-1,-1,-1,-1,-1],"loss_changes":[6.5823803E0,2.182016E0,1.4296331E0,1.559366E0,2.4247847E0,0E0,0E0,1.2643404E0,0E0,1.8503721E0,0E0,0E0,0E0,0E0,0E0],"parents":[2147483647,0,0,1,1,2,2,3,3,4,4,7,7,9,9],"right_children":[2,4,6,8,10,-1,-1,12,-1,14,-1,-1,-1,-1,-1],"split_conditions":[1.443E3,3.098E2,1.69E1,1E0,1.419E3,1.3707179E-2,-3.464524E-2,6.03E1,2.7003402E-2,1E0,6.723627E-2,-3.6316603E-2,1.30705675E-2,-3.8947791E-3,3.857431E-2],"split_indices":[2,1,3,8,2,0,0,3,0,6,0,0,0,0,0],"split_type":[0,0,0,0,0,0,0,0,0,0,0,0,0,0,0],"sum_hessian":[3.8006954E1,1.7830067E1,2.017689E1,6.1221457E0,1.170792E1,1.1374576E0,1.903943E1,5.094291E0,1.0278543E0,1.0317886E1,1.390034E0,3.9159997E0,1.1782916E0,7.5517497E0,2.766137E0],"tree_param":{"num_deleted":"0","num_feature":"10","num_nodes":"15","size_leaf_vector":"1"}},{"base_weights":[-2.8500494E-1,-4.0320423E-1,3.9959587E-2,-5.385441E-1,3.9175823E-2,-6.5149105E-1,3.549576E-2,-3.8049832E-2,-3.8869164E-3],"categories":[],"categories_nodes":[],"categories_segments":[],"categories_sizes":[],"default_left":[0,0,0,0,0,0,0,0,0],"id":80,"left_children":[1,3,-1,5,-1,7,-1,-1,-1],"loss_changes":[5.1352215E0,5.967803E0,0E0,4.9166555E0,0E0,1.7935724E0,0E0,0E0,0E0],"parents":[2147483647,0,0,1,1,3,3,5,5],"right_children":[2,4,-1,6,-1,8,-1,-1,-1],"split_conditions":[1E0,1E0,3.9959587E-2,1E0,3.9175823E-2,2.03E2,3.549576E-2,-3.8049832E-2,-3.8869164E-3],"split_indices":[8,6,0,7,0,4,0,0,0],"split_type":[0,0,0,0,0,0,0,0,0],"sum_hessian":[3.6557053E1,3.3529743E1,3.02731E0,3.0587566E1,2.9421768E0,2.848841E1,2.0991557E0,2.3648539E1,4.8398733E0],"tree_param":{"num_deleted":"0","num_feature":"10","num_nodes":"9","size_leaf_vector":"1"}},{"base_weights":[-2.953906E-1,-4.0777826E-1,3.868147E-2,-5.3424966E-1,3.8597044E-2,-6.6859496E-1,3.8907606E-2,-4.0817183E-2,3.640516E-2],"categories":[],"categories_nodes":[],"categories_segments":[],"categories_sizes":[],"default_left":[0,0,0,0,0,0,0,0,0],"id":81,"left_children":[1,3,-1,5,-1,7,-1,-1,-1],"loss_changes":[4.7268925E0,5.4672523E0,0E0,6.0195503E0,0E0,6.5440884E0,0E0,0E0,0E0],"parents":[2147483647,0,0,1,1,3,3,5,5],"right_children":[2,4,-1,6,-1,8,-1,-1,-1],"split_conditions":[1E0,1E0,3.868147E-2,1E0,3.8597044E-2,1E0,3.8907606E-2,-4.0817183E-2,3.640516E-2],"split_indices":[6,8,0,5,0,7,0,0,0],"split_type":[0,0,0,0,0,0,0,0,0],"sum_hessian":[3.57176E1,3.2879482E1,2.838119E0,3.01901E1,2.6893816E0,2.7831644E1,2.3584569E0,2.5544912E1,2.28673E0],"tree_param":{"num_deleted":"0","num_feature":"10","num_nodes":"9","size_leaf_vector":"1"}},{"base_weights":[-2.2111487E-1,-3.3877E-1,3.9699506E-2,-4.5767665E-1,3.7733994E-2,-5.899965E-1,3.875843E-2,-3.6574434E-2,3.6021497E-2],"categories":[],"categories_nodes":[],"categories_segments":[],"categories_sizes":[],"default_left":[0,0,0,0,0,0,0,0,0],"id":82,"left_children":[1,3,-1,5,-1,7,-1,-1,-1],"loss_changes":[4.5493135E0,4.612277E0,0E0,5.3873386E0,0E0,5.692625E0,0E0,0E0,0E0],"parents":[2147483647,0,0,1,1,3,3,5,5],"right_children":[2,4,-1,6,-1,8,-1,-1,-1],"split_conditions":[1E0,1E0,3.9699506E-2,1E0,3.7733994E-2,1E0,3.875843E-2,-3.6574434E-2,3.6021497E-2],"split_indices":[8,6,0,5,0,7,0,0,0],"split_type":[0,0,0,0,0,0,0,0,0],"sum_hessian":[3.4838993E1,3.1817476E1,3.0215147E0,2.9221264E1,2.5962133E0,2.6859861E1,2.361403E0,2.4641056E1,2.218804E0],"tree_param":{"num_deleted":"0","num_feature":"10","num_nodes":"9","size_leaf_vector":"1"}},{"base_weights":[-2.561658E-1,-3.819236E-1,3.9591882E-2,-5.014746E-1,3.697448E-2,-6.2534976E-1,3.705996E-2,-3.8144723E-2,3.504449E-2],"categories":[],"categories_nodes":[],"categories_segments":[],"categories_sizes":[],"default_left":[0,0,0,0,0,0,0,0,0],"id":83,"left_children":[1,3,-1,5,-1,7,-1,-1,-1],"loss_changes":[4.8403177E0,4.582813E0,0E0,4.9255733E0,0E0,5.4419565E0,0E0,0E0,0E0],"parents":[2147483647,0,0,1,1,3,3,5,5],"right_children":[2,4,-1,6,-1,8,-1,-1,-1],"split_conditions":[1E0,1E0,3.9591882E-2,1E0,3.697448E-2,1E0,3.705996E-2,-3.8144723E-2,3.504449E-2],"split_indices":[8,6,0,5,0,7,0,0,0],"split_type":[0,0,0,0,0,0,0,0,0],"sum_hessian":[3.343158E1,3.0417168E1,3.0144134E0,2.7986423E1,2.4307437E0,2.5901245E1,2.0851774E0,2.3852285E1,2.0489597E0],"tree_param":{"num_deleted":"0","num_feature":"10","num_nodes":"9","size_leaf_vector":"1"}},{"base_weights":[-2.3856862E-1,1.6383652E-1,-5.8785486E-1,-1.27164E-1,6.645399E-1,-7.500809E-1,3.3468146E-2,-4.0755233E-1,3.58445E-2,9.130789E-1,1.8007661E-1,9.173555E-3,-8.2314146E-1,-2.6569242E-2,1.23040285E-2,1.4288999E-2,5.919486E-2,4.5216092E-4,1.3393189E-2,-4.2734873E-2,-9.603721E-3],"categories":[],"categories_nodes":[],"categories_segments":[],"categories_sizes":[],"default_left":[0,0,0,0,0,0,0,0,0,0,0,0,0,0,0,0,0,0,0,0,0],"id":84,"left_children":[1,3,5,7,9,11,-1,13,-1,15,17,-1,19,-1,-1,-1,-1,-1,-1,-1,-1],"loss_changes":[4.7538238E0,2.441948E0,4.1644907E0,2.9124885E0,5.709822E-1,1.2679873E0,0E0,8.5507345E-1,0E0,3.057027E-1,4.7374576E-2,0E0,1.4191246E-1,0E0,0E0,0E0,0E0,0E0,0E0,0E0,0E0],"parents":[2147483647,0,0,1,1,2,2,3,3,4,4,5,5,7,7,9,9,10,10,12,12],"right_children":[2,4,6,8,10,12,-1,14,-1,16,18,-1,20,-1,-1,-1,-1,-1,-1,-1,-1],"split_conditions":[1.443E3,3.019E2,1E0,1E0,1.2E2,1.83E1,3.3468146E-2,6.15E1,3.58445E-2,1.361E3,5.24E1,9.173555E-3,4.77E1,-2.6569242E-2,1.23040285E-2,1.4288999E-2,5.919486E-2,4.5216092E-4,1.3393189E-2,-4.2734873E-2,-9.603721E-3],"split_indices":[2,0,5,8,4,3,0,3,0,2,3,0,3,0,0,0,0,0,0,0,0],"split_type":[0,0,0,0,0,0,0,0,0,0,0,0,0,0,0,0,0,0,0,0,0],"sum_hessian":[3.2136673E1,1.5179564E1,1.695711E1,1.0071945E1,5.1076193E0,1.5376388E1,1.5807228E0,7.9486217E0,2.123323E0,2.7910392E0,2.3165803E0,1.0063432E0,1.4370044E1,6.8398275E0,1.1087946E0,1.4613489E0,1.3296903E0,1.159863E0,1.1567173E0,1.3348208E1,1.0218353E0],"tree_param":{"num_deleted":"0","num_feature":"10","num_nodes":"21","size_leaf_vector":"1"}},{"base_weights":[-2.3420787E-1,-5.6868285E-1,1.3642168E-1,-7.482021E-1,3.4201786E-2,-2.793176E-1,3.634903E-1,1.3858753E-2,-4.218675E-2,-4.7893977E-1,1.5001386E-2,1.13716975E-1,4.915012E-2,-3.5054963E-2,1.0399121E-2,-1.1005825E-2,3.649772E-2],"categories":[],"categories_nodes":[],"categories_segments":[],"categories_sizes":[],"default_left":[0,0,0,0,0,0,0,0,0,0,0,0,0,0,0,0,0],"id":85,"left_children":[1,3,5,7,-1,9,11,-1,-1,13,-1,15,-1,-1,-1,-1,-1],"loss_changes":[4.0915513E0,4.3828626E0,1.6276355E0,1.7554741E0,0E0,8.695253E-1,1.5733186E0,0E0,0E0,9.1692126E-1,0E0,1.9899063E0,0E0,0E0,0E0,0E0,0E0],"parents":[2147483647,0,0,1,1,2,2,3,3,5,5,6,6,9,9,11,11],"right_children":[2,4,6,8,-1,10,12,-1,-1,14,-1,16,-1,-1,-1,-1,-1],"split_conditions":[4.48E1,1E0,3.098E2,1.69E1,3.4201786E-2,6.03E1,1.419E3,1.3858753E-2,-4.218675E-2,2.02E2,1.5001386E-2,1E0,4.915012E-2,-3.5054963E-2,1.0399121E-2,-1.1005825E-2,3.649772E-2],"split_indices":[3,5,1,3,0,3,2,0,0,4,0,6,0,0,0,0,0],"split_type":[0,0,0,0,0,0,0,0,0,0,0,0,0,0,0,0,0],"sum_hessian":[3.1379528E1,1.6213379E1,1.516615E1,1.4533422E1,1.6799556E0,5.2760835E0,9.890067E0,1.0766057E0,1.3456817E1,4.052903E0,1.2231803E0,7.891821E0,1.9982458E0,3.046868E0,1.006035E0,5.5357513E0,2.3560698E0],"tree_param":{"num_deleted":"0","num_feature":"10","num_nodes":"17","size_leaf_vector":"1"}},{"base_weights":[-2.5111696E-1,-3.5261235E-1,3.6169313E-2,-4.588143E-1,3.6305103E-2,-5.760635E-1,3.4453288E-2,-3.8471915E-2,-7.218398E-3],"categories":[],"categories_nodes":[],"categories_segments":[],"categories_sizes":[],"default_left":[0,0,0,0,0,0,0,0,0],"id":86,"left_children":[1,3,-1,5,-1,7,-1,-1,-1],"loss_changes":[3.3539264E0,3.6609018E0,0E0,4.0384984E0,0E0,1.9837494E0,0E0,0E0,0E0],"parents":[2147483647,0,0,1,1,3,3,5,5],"right_children":[2,4,-1,6,-1,8,-1,-1,-1],"split_conditions":[1E0,1E0,3.6169313E-2,1E0,3.6305103E-2,4.85E1,3.4453288E-2,-3.8471915E-2,-7.218398E-3],"split_indices":[6,5,0,7,0,3,0,0,0],"split_type":[0,0,0,0,0,0,0,0,0],"sum_hessian":[3.0330778E1,2.8047743E1,2.2830358E0,2.6057034E1,1.99071E0,2.409411E1,1.962922E0,1.6099915E1,7.994197E0],"tree_param":{"num_deleted":"0","num_feature":"10","num_nodes":"9","size_leaf_vector":"1"}},{"base_weights":[-1.9105767E-1,-3.0234435E-1,3.7681386E-2,-4.1683722E-1,3.7126377E-2,-5.4183316E-1,3.500191E-2,-3.428566E-2,3.4678634E-2],"categories":[],"categories_nodes":[],"categories_segments":[],"categories_sizes":[],"default_left":[0,0,0,0,0,0,0,0,0],"id":87,"left_children":[1,3,-1,5,-1,7,-1,-1,-1],"loss_changes":[3.4582808E0,3.6834502E0,0E0,4.0171695E0,0E0,4.7414536E0,0E0,0E0,0E0],"parents":[2147483647,0,0,1,1,3,3,5,5],"right_children":[2,4,-1,6,-1,8,-1,-1,-1],"split_conditions":[1E0,1E0,3.7681386E-2,1E0,3.7126377E-2,1E0,3.500191E-2,-3.428566E-2,3.4678634E-2],"split_indices":[8,5,0,7,0,6,0,0,0],"split_type":[0,0,0,0,0,0,0,0,0],"sum_hessian":[2.9727652E1,2.720301E1,2.524641E0,2.5058289E1,2.144723E0,2.2999184E1,2.059104E0,2.099856E1,2.0006232E0],"tree_param":{"num_deleted":"0","num_feature":"10","num_nodes":"9","size_leaf_vector":"1"}},{"base_weights":[-1.7314821E-1,-5.4228055E-1,2.1429715E-1,-7.537602E-1,3.4788817E-2,-2.7199498E-1,4.8693117E-1,7.497433E-3,-4.193988E-2,-5.3643286E-1,1.859888E-2,6.366554E-1,-9.086101E-3,-3.5443593E-2,2.862068E-3,5.536099E-2,1.3727847E-2],"categories":[],"categories_nodes":[],"categories_segments":[],"categories_sizes":[],"default_left":[0,0,0,0,0,0,0,0,0,0,0,0,0,0,0,0,0],"id":88,"left_children":[1,3,5,7,-1,9,11,-1,-1,13,-1,15,-1,-1,-1,-1,-1],"loss_changes":[4.4098754E0,4.623942E0,2.1694355E0,1.1903749E0,0E0,1.2487054E0,1.1371796E0,0E0,0E0,5.2961326E-1,0E0,1.1543112E0,0E0,0E0,0E0,0E0,0E0],"parents":[2147483647,0,0,1,1,2,2,3,3,5,5,6,6,9,9,11,11],"right_children":[2,4,6,8,-1,10,12,-1,-1,14,-1,16,-1,-1,-1,-1,-1],"split_conditions":[4.48E1,1E0,3.099E2,1.92E1,3.4788817E-2,6.03E1,3.12E2,7.497433E-3,-4.193988E-2,1.95E2,1.859888E-2,4.87E1,-9.086101E-3,-3.5443593E-2,2.862068E-3,5.536099E-2,1.3727847E-2],"split_indices":[3,5,1,3,0,3,1,0,0,4,0,3,0,0,0,0,0],"split_type":[0,0,0,0,0,0,0,0,0,0,0,0,0,0,0,0,0],"sum_hessian":[2.902173E1,1.465745E1,1.436428E1,1.285311E1,1.8043393E0,5.1610165E0,9.203263E0,1.0397844E0,1.1813326E1,3.7770293E0,1.3839875E0,7.558602E0,1.6446614E0,2.7765186E0,1.0005107E0,2.392129E0,5.1664734E0],"tree_param":{"num_deleted":"0","num_feature":"10","num_nodes":"17","size_leaf_vector":"1"}},{"base_weights":[-1.6731702E-1,-5.110889E-1,1.6809645E-1,-6.615021E-1,3.0306214E-2,-2.0359474E-1,4.9312067E-1,4.8544247E-2,-4.473878E-2,-5.033585E-1,3.688284E-1,6.780952E-1,-1.1053315E-2,-1.6102057E-2,2.745845E-2,-3.6928024E-2,1.3059135E-2,3.888034E-3,2.337684E-2,4.9451154E-2,8.921321E-3],"categories":[],"categories_nodes":[],"categories_segments":[],"categories_sizes":[],"default_left":[0,0,0,0,0,0,0,0,0,0,0,0,0,0,0,0,0,0,0,0,0],"id":89,"left_children":[1,3,5,7,-1,9,11,13,-1,15,17,19,-1,-1,-1,-1,-1,-1,-1,-1,-1],"loss_changes":[3.4920363E0,2.8939977E0,1.9976044E0,2.2883677E0,0E0,1.5642123E0,1.2953045E0,9.746426E-1,0E0,1.2170954E0,5.955693E-2,9.3164444E-1,0E0,0E0,0E0,0E0,0E0,0E0,0E0,0E0,0E0],"parents":[2147483647,0,0,1,1,2,2,3,3,5,5,6,6,7,7,9,9,10,10,11,11],"right_children":[2,4,6,8,-1,10,12,14,-1,16,18,20,-1,-1,-1,-1,-1,-1,-1,-1,-1],"split_conditions":[4.48E1,1E0,3.006E2,2.92E1,3.0306214E-2,1.91E2,3.12E2,1.43E2,-4.473878E-2,6.09E1,5.21E1,1.2E2,-1.1053315E-2,-1.6102057E-2,2.745845E-2,-3.6928024E-2,1.3059135E-2,3.888034E-3,2.337684E-2,4.9451154E-2,8.921321E-3],"split_indices":[3,5,0,3,0,4,1,4,0,3,3,4,0,0,0,0,0,0,0,0,0],"split_type":[0,0,0,0,0,0,0,0,0,0,0,0,0,0,0,0,0,0,0,0,0],"sum_hessian":[2.8539938E1,1.3835699E1,1.4704238E1,1.2553491E1,1.2822086E0,7.033952E0,7.670286E0,3.3001802E0,9.253311E0,4.695624E0,2.3383281E0,6.132502E0,1.5377836E0,2.1013708E0,1.1988093E0,3.6169076E0,1.0787162E0,1.044912E0,1.2934161E0,3.176507E0,2.955995E0],"tree_param":{"num_deleted":"0","num_feature":"10","num_nodes":"21","size_leaf_vector":"1"}},{"base_weights":[-1.7962597E-1,1.6794574E-1,-5.142914E-1,-2.8349128E-1,3.8698924E-1,-6.359644E-1,2.7607856E-2,-4.8535067E-1,1.3276461E-2,1.8861456E-1,5.2731957E-2,3.6637347E-2,-8.432562E-1,-3.4840513E-2,4.5480262E-3,-5.022877E-3,3.633375E-2,2.4388345E-2,-1.7979005E-2,-4.4195026E-2,-1.1945455E-2],"categories":[],"categories_nodes":[],"categories_segments":[],"categories_sizes":[],"default_left":[0,0,0,0,0,0,0,0,0,0,0,0,0,0,0,0,0,0,0,0,0],"id":90,"left_children":[1,3,5,7,9,11,-1,13,-1,15,-1,17,19,-1,-1,-1,-1,-1,-1,-1,-1],"loss_changes":[3.423728E0,1.5759643E0,2.2797573E0,7.2970486E-1,1.1793753E0,1.9557567E0,0E0,5.895544E-1,0E0,1.5102656E0,0E0,9.280554E-1,4.907322E-2,0E0,0E0,0E0,0E0,0E0,0E0,0E0,0E0],"parents":[2147483647,0,0,1,1,2,2,3,3,4,4,5,5,7,7,9,9,11,11,12,12],"right_children":[2,4,6,8,10,12,-1,14,-1,16,-1,18,20,-1,-1,-1,-1,-1,-1,-1,-1],"split_conditions":[1.443E3,3.098E2,1E0,2E2,1.419E3,2.92E1,2.7607856E-2,5.82E1,1.3276461E-2,1E0,5.2731957E-2,3.099E2,4.73E1,-3.4840513E-2,4.5480262E-3,-5.022877E-3,3.633375E-2,2.4388345E-2,-1.7979005E-2,-4.4195026E-2,-1.1945455E-2],"split_indices":[2,1,5,4,2,3,0,3,0,6,0,1,3,0,0,0,0,0,0,0,0],"split_type":[0,0,0,0,0,0,0,0,0,0,0,0,0,0,0,0,0,0,0,0,0],"sum_hessian":[2.7691092E1,1.3827994E1,1.3863097E1,4.4214325E0,9.406562E0,1.2805731E1,1.0573665E0,3.3176103E0,1.1038222E0,8.240591E0,1.1659707E0,3.2108173E0,9.5949135E0,2.2741094E0,1.0435009E0,5.889672E0,2.3509192E0,1.3933282E0,1.8174891E0,8.556865E0,1.038049E0],"tree_param":{"num_deleted":"0","num_feature":"10","num_nodes":"21","size_leaf_vector":"1"}},{"base_weights":[-1.4852236E-1,1.7476484E-1,-4.5223725E-1,-2.2140124E-1,3.722063E-1,-6.131204E-1,3.140491E-2,-2.2732746E-2,1.2595131E-2,1.629203E-1,5.5113282E-2,-7.9998755E-1,-1.14683695E-1,-4.723882E-3,3.4668643E-2,-4.235601E-2,-1.0532742E-2,1.8292641E-2,-2.4164772E-2],"categories":[],"categories_nodes":[],"categories_segments":[],"categories_sizes":[],"default_left":[0,0,0,0,0,0,0,0,0,0,0,0,0,0,0,0,0,0,0],"id":91,"left_children":[1,3,5,7,9,11,-1,-1,-1,13,-1,15,17,-1,-1,-1,-1,-1,-1],"loss_changes":[2.8455882E0,1.2063963E0,2.9586122E0,7.114119E-1,1.3426932E0,1.1557455E0,0E0,0E0,0E0,1.2829801E0,0E0,8.7486744E-2,1.0304924E0,0E0,0E0,0E0,0E0,0E0,0E0],"parents":[2147483647,0,0,1,1,2,2,3,3,4,4,5,5,9,9,11,11,12,12],"right_children":[2,4,6,8,10,12,-1,-1,-1,14,-1,16,18,-1,-1,-1,-1,-1,-1],"split_conditions":[1.443E3,3.098E2,1E0,1.87E2,1.421E3,1.662E3,3.140491E-2,-2.2732746E-2,1.2595131E-2,1E0,5.5113282E-2,2.08E2,3.099E2,-4.723882E-3,3.4668643E-2,-4.235601E-2,-1.0532742E-2,1.8292641E-2,-2.4164772E-2],"split_indices":[2,1,5,4,2,2,0,0,0,6,0,4,1,0,0,0,0,0,0],"split_type":[0,0,0,0,0,0,0,0,0,0,0,0,0,0,0,0,0,0,0],"sum_hessian":[2.7176327E1,1.336966E1,1.3806666E1,4.406557E0,8.963103E0,1.2393503E1,1.4131632E0,2.978228E0,1.428329E0,7.9167657E0,1.0463378E0,8.574043E0,3.8194594E0,5.883659E0,2.0331068E0,7.5340734E0,1.0399704E0,1.6612605E0,2.158199E0],"tree_param":{"num_deleted":"0","num_feature":"10","num_nodes":"19","size_leaf_vector":"1"}},{"base_weights":[-1.938511E-1,-3.2273528E-1,3.77301E-2,-4.3814832E-1,3.4105685E-2,-5.593348E-1,3.3808947E-2,-3.0953651E-2,1.1365018E-2],"categories":[],"categories_nodes":[],"categories_segments":[],"categories_sizes":[],"default_left":[0,0,0,0,0,0,0,0,0],"id":92,"left_children":[1,3,-1,5,-1,7,-1,-1,-1],"loss_changes":[3.5804613E0,3.1671865E0,0E0,3.4562855E0,0E0,1.1324911E0,0E0,0E0,0E0],"parents":[2147483647,0,0,1,1,3,3,5,5],"right_children":[2,4,-1,6,-1,8,-1,-1,-1],"split_conditions":[1E0,1E0,3.77301E-2,1E0,3.4105685E-2,6.15E1,3.3808947E-2,-3.0953651E-2,1.1365018E-2],"split_indices":[8,6,0,5,0,3,0,0,0],"split_type":[0,0,0,0,0,0,0,0,0],"sum_hessian":[2.6298008E1,2.3732721E1,2.5652866E0,2.1793564E1,1.9391582E0,2.0105122E1,1.6884418E0,1.888405E1,1.2210715E0],"tree_param":{"num_deleted":"0","num_feature":"10","num_nodes":"9","size_leaf_vector":"1"}},{"base_weights":[-1.7718962E-1,-2.9871762E-1,3.7031725E-2,-4.0629047E-1,3.3307698E-2,-5.250421E-1,3.366477E-2,3.4936254E-3,-3.1817716E-2],"categories":[],"categories_nodes":[],"categories_segments":[],"categories_sizes":[],"default_left":[0,0,0,0,0,0,0,0,0],"id":93,"left_children":[1,3,-1,5,-1,7,-1,-1,-1],"loss_changes":[3.2087276E0,2.7995453E0,0E0,3.2434227E0,0E0,1.4264889E0,0E0,0E0,0E0],"parents":[2147483647,0,0,1,1,3,3,5,5],"right_children":[2,4,-1,6,-1,8,-1,-1,-1],"split_conditions":[1E0,1E0,3.7031725E-2,1E0,3.3307698E-2,2.92E1,3.366477E-2,3.4936254E-3,-3.1817716E-2],"split_indices":[8,6,0,5,0,3,0,0,0],"split_type":[0,0,0,0,0,0,0,0,0],"sum_hessian":[2.5783674E1,2.336454E1,2.4191341E0,2.1541779E1,1.8227603E0,1.9869816E1,1.6719644E0,3.1904657E0,1.667935E1],"tree_param":{"num_deleted":"0","num_feature":"10","num_nodes":"9","size_leaf_vector":"1"}},{"base_weights":[-1.677228E-1,-2.910938E-1,3.7125167E-2,-4.200894E-1,3.535389E-2,-5.482764E-1,3.300828E-2,-3.4063283E-2,3.2391936E-2],"categories":[],"categories_nodes":[],"categories_segments":[],"categories_sizes":[],"default_left":[0,0,0,0,0,0,0,0,0],"id":94,"left_children":[1,3,-1,5,-1,7,-1,-1,-1],"loss_changes":[3.1921563E0,3.3945818E0,0E0,3.3988383E0,0E0,3.6467638E0,0E0,0E0,0E0],"parents":[2147483647,0,0,1,1,3,3,5,5],"right_children":[2,4,-1,6,-1,8,-1,-1,-1],"split_conditions":[1E0,1E0,3.7125167E-2,1E0,3.535389E-2,1E0,3.300828E-2,-3.4063283E-2,3.2391936E-2],"split_indices":[8,7,0,6,0,5,0,0,0],"split_type":[0,0,0,0,0,0,0,0,0],"sum_hessian":[2.5501675E1,2.3056782E1,2.4448926E0,2.0930973E1,2.1258087E0,1.9150911E1,1.7800614E0,1.7622051E1,1.5288606E0],"tree_param":{"num_deleted":"0","num_feature":"10","num_nodes":"9","size_leaf_vector":"1"}},{"base_weights":[-1.6132183E-1,-2.7014682E-1,3.5439525E-2,-3.826995E-1,3.370967E-2,-5.161722E-1,3.353299E-2,-3.3463664E-2,3.3922702E-2],"categories":[],"categories_nodes":[],"categories_segments":[],"categories_sizes":[],"default_left":[0,0,0,0,0,0,0,0,0],"id":95,"left_children":[1,3,-1,5,-1,7,-1,-1,-1],"loss_changes":[2.6081483E0,2.746087E0,0E0,3.3765244E0,0E0,4.0562425E0,0E0,0E0,0E0],"parents":[2147483647,0,0,1,1,3,3,5,5],"right_children":[2,4,-1,6,-1,8,-1,-1,-1],"split_conditions":[1E0,1E0,3.5439525E-2,1E0,3.370967E-2,1E0,3.353299E-2,-3.3463664E-2,3.3922702E-2],"split_indices":[8,7,0,6,0,5,0,0,0],"split_type":[0,0,0,0,0,0,0,0,0],"sum_hessian":[2.4521933E1,2.240879E1,2.1131418E0,2.0553799E1,1.8549926E0,1.8694914E1,1.8588841E0,1.6960989E1,1.7339255E0],"tree_param":{"num_deleted":"0","num_feature":"10","num_nodes":"9","size_leaf_vector":"1"}},{"base_weights":[-1.8642364E-1,-3.0745912E-1,3.597474E-2,-4.3360916E-1,3.4181595E-2,-5.668957E-1,3.3474028E-2,-3.5742972E-2,3.175458E-2],"categories":[],"categories_nodes":[],"categories_segments":[],"categories_sizes":[],"default_left":[0,0,0,0,0,0,0,0,0],"id":96,"left_children":[1,3,-1,5,-1,7,-1,-1,-1],"loss_changes":[2.9390497E0,3.117782E0,0E0,3.4126961E0,0E0,3.823822E0,0E0,0E0,0E0],"parents":[2147483647,0,0,1,1,3,3,5,5],"right_children":[2,4,-1,6,-1,8,-1,-1,-1],"split_conditions":[1E0,1E0,3.597474E-2,1E0,3.4181595E-2,1E0,3.3474028E-2,-3.5742972E-2,3.175458E-2],"split_indices":[8,7,0,5,0,6,0,0,0],"split_type":[0,0,0,0,0,0,0,0,0],"sum_hessian":[2.378684E1,2.1566105E1,2.2207346E0,1.9630013E1,1.9360932E0,1.7947496E1,1.6825166E0,1.6341179E1,1.6063169E0],"tree_param":{"num_deleted":"0","num_feature":"10","num_nodes":"9","size_leaf_vector":"1"}},{"base_weights":[-4.2530168E-2,-4.2169726E-1,3.0904162E-1,-5.969529E-1,2.9836848E-2,-2.1105652E-1,5.5119723E-1,1.09276846E-1,-4.282903E-2,-4.1138783E-1,1.0795139E-2,7.070069E-1,-6.425877E-3,2.8166384E-2,-1.673756E-2,-3.1546112E-2,4.4840146E-3,5.3518046E-2,1.145241E-2],"categories":[],"categories_nodes":[],"categories_segments":[],"categories_sizes":[],"default_left":[0,0,0,0,0,0,0,0,0,0,0,0,0,0,0,0,0,0,0],"id":97,"left_children":[1,3,5,7,-1,9,11,13,-1,15,-1,17,-1,-1,-1,-1,-1,-1,-1],"loss_changes":[3.385274E0,2.5285082E0,1.784703E0,2.0891912E0,0E0,5.106206E-1,1.0774229E0,9.572051E-1,0E0,4.6366543E-1,0E0,1.0976534E0,0E0,0E0,0E0,0E0,0E0,0E0,0E0],"parents":[2147483647,0,0,1,1,2,2,3,3,5,5,6,6,7,7,9,9,11,11],"right_children":[2,4,6,8,-1,10,12,14,-1,16,-1,18,-1,-1,-1,-1,-1,-1,-1],"split_conditions":[4.48E1,1E0,3.098E2,2.92E1,2.9836848E-2,5.82E1,3.119E2,3.099E2,-4.282903E-2,1.86E2,1.0795139E-2,1.2E2,-6.425877E-3,2.8166384E-2,-1.673756E-2,-3.1546112E-2,4.4840146E-3,5.3518046E-2,1.145241E-2],"split_indices":[3,5,1,3,0,3,1,1,0,4,0,4,0,0,0,0,0,0,0],"split_type":[0,0,0,0,0,0,0,0,0,0,0,0,0,0,0,0,0,0,0],"sum_hessian":[2.3417429E1,1.1170587E1,1.2246842E1,9.88363E0,1.2869569E0,3.9314215E0,8.315421E0,2.8124378E0,7.071192E0,2.7007074E0,1.2307142E0,6.732086E0,1.5833346E0,1.2576864E0,1.5547514E0,1.697724E0,1.0029833E0,3.120429E0,3.6116574E0],"tree_param":{"num_deleted":"0","num_feature":"10","num_nodes":"19","size_leaf_vector":"1"}},{"base_weights":[-8.702122E-2,-4.6320376E-1,2.3928218E-1,1.1461891E-1,-6.850104E-1,-4.345666E-2,6.998257E-1,-1.7194182E-2,3.181247E-2,-4.1890386E-2,-2.0198813E-3,-2.9259434E-1,3.6418042E-1,1.0348523E0,-5.44241E-3,-2.4465254E-2,1.6924644E-2,3.8581595E-3,2.5132535E-2,6.933825E-2,1.2664636E-2],"categories":[],"categories_nodes":[],"categories_segments":[],"categories_sizes":[],"default_left":[0,0,0,0,0,0,0,0,0,0,0,0,0,0,0,0,0,0,0,0,0],"id":98,"left_children":[1,3,5,7,9,11,13,-1,-1,-1,-1,15,17,19,-1,-1,-1,-1,-1,-1,-1],"loss_changes":[2.9984272E0,1.5226235E0,1.756607E0,1.1711996E0,7.8223014E-1,1.0363648E0,1.4946938E0,0E0,0E0,0E0,0E0,9.398936E-1,1.1694759E-1,6.6696024E-1,0E0,0E0,0E0,0E0,0E0,0E0,0E0],"parents":[2147483647,0,0,1,1,2,2,3,3,4,4,5,5,6,6,11,11,12,12,13,13],"right_children":[2,4,6,8,10,12,14,-1,-1,-1,-1,16,18,20,-1,-1,-1,-1,-1,-1,-1],"split_conditions":[4.48E1,2.92E1,3.019E2,1.45E2,2.03E2,1.87E2,3.119E2,-1.7194182E-2,3.181247E-2,-4.1890386E-2,-2.0198813E-3,6.25E1,5.27E1,1.2E2,-5.44241E-3,-2.4465254E-2,1.6924644E-2,3.8581595E-3,2.5132535E-2,6.933825E-2,1.2664636E-2],"split_indices":[3,3,0,4,4,4,1,0,0,0,0,3,3,4,0,0,0,0,0,0,0],"split_type":[0,0,0,0,0,0,0,0,0,0,0,0,0,0,0,0,0,0,0,0,0],"sum_hessian":[2.2524231E1,1.0267583E1,1.2256648E1,2.9821389E0,7.285444E0,8.155456E0,4.1011915E0,1.7684553E0,1.2136836E0,5.647151E0,1.638293E0,5.236969E0,2.918487E0,2.7020607E0,1.399131E0,4.1637774E0,1.0731915E0,1.4565812E0,1.4619058E0,1.3292043E0,1.3728564E0],"tree_param":{"num_deleted":"0","num_feature":"10","num_nodes":"21","size_leaf_vector":"1"}},{"base_weights":[-1.02866024E-1,2.8661594E-1,-4.9384344E-1,4.0572036E-2,5.6126334E-2,-6.5074855E-1,2.771138E-2,-1.6099744E-1,3.3180896E-2,-7.3505217E-1,3.5502703E-3,-2.3184052E-2,1.5232645E-2,-4.2103827E-2,-1.5067334E-2],"categories":[],"categories_nodes":[],"categories_segments":[],"categories_sizes":[],"default_left":[0,0,0,0,0,0,0,0,0,0,0,0,0,0,0],"id":99,"left_children":[1,3,5,7,-1,9,-1,11,-1,13,-1,-1,-1,-1,-1],"loss_changes":[3.6876976E0,2.4839406E0,2.332155E0,1.4304521E0,0E0,7.1465445E-1,0E0,1.3770509E0,0E0,2.0283985E-1,0E0,0E0,0E0,0E0,0E0],"parents":[2147483647,0,0,1,1,2,2,3,3,5,5,7,7,9,9],"right_children":[2,4,6,8,-1,10,-1,12,-1,14,-1,-1,-1,-1,-1],"split_conditions":[1.443E3,1.419E3,1E0,1E0,5.6126334E-2,1.977E3,2.771138E-2,3.019E2,3.3180896E-2,1.76E2,3.5502703E-3,-2.3184052E-2,1.5232645E-2,-4.2103827E-2,-1.5067334E-2],"split_indices":[2,2,5,8,0,2,0,0,0,4,0,0,0,0,0],"split_type":[0,0,0,0,0,0,0,0,0,0,0,0,0,0,0],"sum_hessian":[2.2287271E1,1.1298707E1,1.0988565E1,9.539395E0,1.7593114E0,9.887432E0,1.1011337E0,7.7678995E0,1.7714956E0,8.836832E0,1.0506E0,4.7103148E0,3.0575852E0,6.3325725E0,2.504259E0],"tree_param":{"num_deleted":"0","num_feature":"10","num_nodes":"15","size_leaf_vector":"1"}},{"base_weights":[-1.2004248E-1,-2.3649505E-1,3.515817E-2,-3.514637E-1,3.276179E-2,-4.7909304E-1,3.1742204E-2,-3.133236E-2,3.210953E-2],"categories":[],"categories_nodes":[],"categories_segments":[],"categories_sizes":[],"default_left":[0,0,0,0,0,0,0,0,0],"id":100,"left_children":[1,3,-1,5,-1,7,-1,-1,-1],"loss_changes":[2.3610399E0,2.3632708E0,0E0,2.7059884E0,0E0,3.2918334E0,0E0,0E0,0E0],"parents":[2147483647,0,0,1,1,3,3,5,5],"right_children":[2,4,-1,6,-1,8,-1,-1,-1],"split_conditions":[1E0,1E0,3.515817E-2,1E0,3.276179E-2,1E0,3.1742204E-2,-3.133236E-2,3.210953E-2],"split_indices":[8,7,0,6,0,5,0,0,0],"split_type":[0,0,0,0,0,0,0,0,0],"sum_hessian":[2.1894258E1,1.9805275E1,2.0889847E0,1.8080114E1,1.725161E0,1.646392E1,1.6161938E0,1.4939152E1,1.5247681E0],"tree_param":{"num_deleted":"0","num_feature":"10","num_nodes":"9","size_leaf_vector":"1"}},{"base_weights":[-1.1538651E-1,-2.2603522E-1,3.41427E-2,-3.3471262E-1,3.171328E-2,-5.8976907E-1,1.2107862E-1,-4.082477E-2,-1.7734159E-2,-3.8219509E-3,2.9985756E-2],"categories":[],"categories_nodes":[],"categories_segments":[],"categories_sizes":[],"default_left":[0,0,0,0,0,0,0,0,0,0,0],"id":101,"left_children":[1,3,-1,5,-1,7,9,-1,-1,-1,-1],"loss_changes":[2.113941E0,2.1043284E0,0E0,2.2362106E0,0E0,3.558874E-1,7.5594366E-1,0E0,0E0,0E0,0E0],"parents":[2147483647,0,0,1,1,3,3,5,5,6,6],"right_children":[2,4,-1,6,-1,8,10,-1,-1,-1,-1],"split_conditions":[1E0,1E0,3.41427E-2,1.79E2,3.171328E-2,3.098E2,1E0,-4.082477E-2,-1.7734159E-2,-3.8219509E-3,2.9985756E-2],"split_indices":[7,6,0,4,0,1,5,0,0,0,0],"split_type":[0,0,0,0,0,0,0,0,0,0,0],"sum_hessian":[2.118633E1,1.923666E1,1.949671E0,1.7621553E1,1.6151055E0,1.1110358E1,6.511196E0,4.3967633E0,6.7135944E0,5.2039814E0,1.3072146E0],"tree_param":{"num_deleted":"0","num_feature":"10","num_nodes":"11","size_leaf_vector":"1"}},{"base_weights":[-8.7440416E-2,2.9413727E-1,-4.7772223E-1,3.409458E-2,5.8146477E-2,-6.278584E-1,7.478197E-2,-1.4578311E-1,3.111121E-2,-7.282972E-1,3.1117883E-3,-3.835064E-3,9.919649E-3,-2.0857496E-2,1.3870053E-2,-4.0773246E-2,-1.3642146E-2],"categories":[],"categories_nodes":[],"categories_segments":[],"categories_sizes":[],"default_left":[0,0,0,0,0,0,0,0,0,0,0,0,0,0,0,0,0],"id":102,"left_children":[1,3,5,7,-1,9,11,13,-1,15,-1,-1,-1,-1,-1,-1,-1],"loss_changes":[3.345561E0,2.5586984E0,9.611118E-1,1.1361206E0,0E0,6.533408E-1,7.604261E-2,1.0777786E0,0E0,8.464575E-2,0E0,0E0,0E0,0E0,0E0,0E0,0E0],"parents":[2147483647,0,0,1,1,2,2,3,3,5,5,6,6,7,7,9,9],"right_children":[2,4,6,8,-1,10,12,14,-1,16,-1,-1,-1,-1,-1,-1,-1],"split_conditions":[1.443E3,1.419E3,2.05E2,1E0,5.8146477E-2,1.953E3,2.16E2,3.019E2,3.111121E-2,1.662E3,3.1117883E-3,-3.835064E-3,9.919649E-3,-2.0857496E-2,1.3870053E-2,-4.0773246E-2,-1.3642146E-2],"split_indices":[2,2,4,8,0,2,4,0,0,2,0,0,0,0,0,0,0],"split_type":[0,0,0,0,0,0,0,0,0,0,0,0,0,0,0,0,0],"sum_hessian":[2.0521517E1,1.0501029E1,1.0020488E1,8.881812E0,1.6192173E0,7.772123E0,2.248365E0,7.377538E0,1.504274E0,6.736334E0,1.0357889E0,1.1808039E0,1.0675609E0,4.503761E0,2.8737772E0,4.9907327E0,1.7456013E0],"tree_param":{"num_deleted":"0","num_feature":"10","num_nodes":"17","size_leaf_vector":"1"}},{"base_weights":[-6.617054E-2,2.9529652E-1,-4.4519818E-1,4.993098E-2,5.4053713E-2,-6.0823005E-1,2.7162952E-2,-1.3990209E-1,3.180315E-2,-9.4457045E-2,-7.7808553E-1,-1.8981017E-2,3.0030591E-2,1.0294865E-2,-1.5155414E-2,-4.1960355E-2,-1.092825E-2],"categories":[],"categories_nodes":[],"categories_segments":[],"categories_sizes":[],"default_left":[0,0,0,0,0,0,0,0,0,0,0,0,0,0,0,0,0],"id":103,"left_children":[1,3,5,7,-1,9,-1,11,-1,13,15,-1,-1,-1,-1,-1,-1],"loss_changes":[3.0676143E0,2.17689E0,2.0805275E0,1.1867315E0,0E0,7.8122115E-1,0E0,1.6963985E0,0E0,2.8624302E-1,6.358194E-2,0E0,0E0,0E0,0E0,0E0,0E0],"parents":[2147483647,0,0,1,1,2,2,3,3,5,5,7,7,9,9,10,10],"right_children":[2,4,6,8,-1,10,-1,12,-1,14,16,-1,-1,-1,-1,-1,-1],"split_conditions":[1.443E3,